SVM-light Version V6.20
0 # kernel type
3 # kernel parameter -d 
1 # kernel parameter -g 
1 # kernel parameter -s 
1 # kernel parameter -r 
empty# kernel parameter -u 
89528 # highest feature index 
259 # number of training documents 
2 # number of support vectors plus 1 
-0.045709349 # threshold b, each following line is a SV (starting with alpha*y)
1 1:0.027102459 2:-0.0011608512 3:-0.018194793 4:0.00056670071 5:0.010731003 6:0.041852199 7:-0.0055887136 8:0.012640763 9:-0.0061560869 10:-0.0090171229 11:-0.025488628 12:0.0036940738 13:-0.012678268 14:-0.0013750417 15:0.010829118 16:-0.012939707 17:0.032079343 18:-0.0064912788 19:-0.06058022 20:0.067248233 21:0.0080373604 22:-0.021220382 23:0.021039093 24:-0.022197515 25:-0.017749188 26:-0.0094470913 27:0.024122106 28:-0.011219379 29:-0.0050876699 30:-0.024699308 31:-0.023947043 32:0.048468284 33:0.0049428497 34:0.017985623 35:0.032827832 36:0.011253554 37:-0.022990152 38:-0.0010668037 39:0.015027975 40:-0.073658288 41:0.0055160169 42:-0.040722501 43:0.015580358 44:0.0054366817 45:0.042491812 46:-0.10238095 47:0.010079251 48:0.088159859 49:0.046301745 50:0.0018330337 51:0.036053468 52:0.030412883 53:-0.071439736 54:0.016414776 55:-0.10119039 56:0.035639975 57:0.03344965 58:-0.071368195 59:0.0020069843 60:-0.050109364 61:0.020316238 62:-0.0028346018 63:-0.003336905 64:0.052687112 65:-0.0091792541 66:0.013128709 67:-0.05874037 68:-0.0069959257 69:0.028912842 70:0.012661361 71:0.13534001 72:-0.066989698 73:-0.044589862 74:0.017753858 75:0.0069003738 76:0.061347041 77:-0.27825484 78:0.013433566 79:0.064030714 80:0.035918176 81:0.0022645788 82:-0.0075133671 83:0.24763444 84:0.067116939 85:0.0084725358 86:0.056214601 87:0.095582753 88:-0.068691857 89:0.0014918209 90:0.01299216 91:-0.079839781 92:-0.01972796 93:0.040252928 94:-0.056843832 95:-0.070678718 96:-0.060586311 97:-0.065038905 98:0.015064596 99:0.0066264081 100:0.031409934 101:-0.025225641 102:0.0065160943 103:0.0098896511 104:-0.039564993 105:0.02312259 106:0.021598708 107:0.087651953 108:0.026476124 109:-0.049610775 110:0.012924557 111:-0.072358027 112:0.0034474975 113:-0.017004974 114:0.10810418 115:0.23976845 116:0.066927254 117:-0.044061072 118:0.0135268 119:0.01816657 120:-0.024725305 121:0.032407116 122:-0.077059701 123:-0.047051225 124:0.011032103 125:-0.0096744876 126:0.13838916 127:0.03215342 128:-0.0014474884 129:-0.04226492 130:0.023675019 131:-0.028293381 132:0.033834841 133:-0.0084629254 134:0.020106131 135:-0.058333382 136:-0.026065381 137:0.0018468784 138:-0.05507471 139:-0.031959925 140:-0.045173284 141:0.0092252884 142:-0.054749027 143:0.04747346 144:-0.076544426 145:0.061967548 146:0.095388815 147:0.11439109 148:-0.10075705 149:-0.00056724082 150:0.00032095562 151:-0.040722415 152:-0.093214892 153:-0.052084439 154:-0.044960231 155:0.0098850513 156:-0.24327794 157:0.0055041644 158:-0.0012073902 159:0.036244236 160:0.029020587 161:0.10838865 162:0.0006185504 163:-0.065593325 164:0.024911044 165:-0.016997525 166:-0.071287088 167:-0.032819074 168:0.052504152 169:0.10596067 170:0.016998684 171:-0.030576879 172:0.056940023 173:0.043990821 174:0.13377565 175:0.066448532 176:-0.037021846 177:0.11171312 178:0.058034744 179:-0.016604606 180:-0.11117113 181:0.059980776 182:0.020811645 183:-0.012908226 184:-0.039387614 185:-0.08381778 186:0.035728354 187:-0.071949475 188:0.053813543 189:-0.10742217 190:0.11946465 191:0.071000643 192:-0.028098896 193:-0.079235733 194:-0.01095776 195:-0.0019357562 196:0.0822687 197:-0.031398609 198:0.074426413 199:0.098602995 200:0.058211062 201:0.12647893 202:0.07770218 203:-0.018235497 204:0.10679123 205:0.0010361823 206:0.07696531 207:-0.011740528 208:0.021882355 209:0.081779495 210:-0.0093319817 211:-0.086459339 212:-0.014580213 213:0.028203677 214:-0.11861558 215:0.0551962 216:-0.085886665 217:-0.063033827 218:0.066618875 219:0.15750465 220:0.038570728 221:-0.19156884 222:-0.028256154 223:-0.015303941 224:-0.095015824 225:-0.19174984 226:0.085167237 227:0.036543321 228:-0.11495461 229:0.056696594 230:-0.12761386 231:-0.0038018741 232:-0.057035808 233:-0.11585639 234:-0.055769894 235:-0.026766486 236:-0.00026288649 237:-0.025039045 238:0.036967326 239:0.068818919 240:-0.77114338 241:0.043620449 242:0.21957341 243:0.00089569384 244:-0.14468871 245:0.057449657 246:0.019069197 247:-0.0070079383 248:-0.08357276 249:0.073940545 250:0.066500016 251:0.024798796 252:0.1537174 253:0.051748864 254:0.077561498 255:-0.040164091 256:-0.058578253 257:-0.11279125 258:-0.057312936 259:-0.034581404 260:-0.17558268 261:0.043829445 262:-0.041356523 263:-0.077969685 264:-0.082535222 265:0.047627624 266:-0.086411014 267:-0.15033048 268:-0.14781158 269:-0.037048448 270:-0.14711769 271:-0.085484512 272:0.066734888 273:-0.055982366 274:0.015492499 275:0.041251969 276:0.18375218 277:-0.0046147518 278:0.093560696 279:0.15394756 280:-0.07825236 281:0.14699946 282:0.21771254 283:-0.044200197 284:-0.09938547 285:-0.11570808 286:0.16123793 287:0.092980459 288:-0.14835492 289:0.037636138 290:0.074334249 291:0.094756559 292:-0.042383626 293:-0.027277833 294:-0.15772647 295:0.017908599 296:0.032710247 297:0.14225838 298:-0.0054235882 299:-0.042374872 300:-0.0048661977 301:-0.0005068953 302:-0.013118356 303:-0.10870249 304:-0.03621218 305:0.064903647 306:0.040475011 307:0.0063271606 308:0.0032016523 309:0.43243203 310:0.039697904 311:0.096854851 312:-0.16798359 313:-0.084126242 314:0.11363232 315:0.072464772 316:-0.10278326 317:-0.0052949232 318:-0.080759861 319:-0.037978198 320:-0.0073041744 321:0.021888064 322:-0.13451415 323:0.078524694 324:0.044829719 325:0.027716175 326:0.0083620353 327:0.011226863 328:-0.35312742 329:0.061855715 330:0.028623924 331:0.056327656 332:0.015209464 333:-0.050812397 334:0.016701449 335:-0.00018348705 336:-0.044658754 337:-0.049610153 338:-0.016045112 339:-0.093444906 340:0.12135986 341:-0.070026606 342:0.18101302 343:0.069846101 344:-0.52458692 345:0.11106015 346:-0.079684637 347:-0.0052599604 348:-0.045793679 349:-0.051114842 350:0.046037976 351:0.006287118 352:0.10312963 353:0.01003472 354:0.12113951 355:-0.15677293 356:-0.037030779 357:-0.053829588 358:0.037164465 359:-0.094861805 360:0.029276386 361:0.0098478049 362:-0.032424685 363:-0.28153265 364:0.010621061 365:0.0083464738 366:0.03815005 367:0.0027257062 368:-0.55174726 369:0.33373517 370:0.020600371 371:0.0092996359 372:0.058500715 373:-0.42964894 374:0.003460227 375:-0.02046195 376:-0.023967411 377:-0.0015911672 378:-0.041180793 379:-0.014824125 380:-0.0025020367 381:-0.004768691 382:-0.056279387 383:0.03812813 384:-0.059698641 385:0.089262329 386:0.10321201 387:0.23743938 388:0.064955965 389:0.022972537 390:0.034660839 391:0.0069178347 392:0.34985736 393:-0.05569477 394:-0.063826293 395:0.022790639 396:0.11178387 397:-0.017992307 398:0.095491208 399:0.077562094 400:-0.0503968 401:-0.050613381 402:-0.06910409 403:0.024948036 404:-0.015309348 405:0.071247213 406:0.25538796 407:-0.25869825 408:-0.052284136 409:-0.25360674 410:0.054277677 411:-0.048333887 412:0.0151711 413:-0.050185088 414:-0.16017719 415:-0.056400668 416:0.072809249 417:0.00090286974 418:-0.0026913187 419:0.015431883 420:-0.010616171 421:-0.056553829 422:-0.41524848 423:0.057187889 424:-0.13167097 425:0.0054551405 426:0.0057281991 427:-0.73449206 428:-0.20346983 429:0.017927382 430:0.09413185 431:0.28092584 432:0.11009125 433:-0.0061581591 434:0.02124949 435:-0.0075443415 436:0.092920788 437:0.2776975 438:0.094687186 439:-0.29539317 440:0.070287943 441:0.033552665 442:0.085738078 443:-0.16994005 444:-0.11630665 445:-0.094422914 446:-0.13526957 447:-0.023838583 448:0.088439286 449:-0.035423778 450:-0.040918063 451:-0.14411038 452:0.04217767 453:0.057906833 454:-0.32204646 455:-0.062312279 456:0.065830901 457:0.038780592 458:0.12169668 459:0.30856732 460:-0.03327474 461:0.084243968 462:0.071906291 463:-0.058371007 464:-0.021377539 465:0.12733488 466:-0.17841302 467:0.0017164234 468:0.011323703 469:-0.040192634 470:0.1215566 471:-0.13795294 472:-0.0018392496 473:-0.066087998 474:-0.010782986 475:0.10491895 476:-0.26531458 477:0.096420154 478:0.011617811 479:0.060455725 480:-0.0030541394 481:-0.0090394765 482:-0.019314364 483:0.048009299 484:0.052551627 485:-0.011184276 486:-0.0041104038 487:-0.047183972 488:0.30855808 489:0.38212529 490:0.054209504 491:-0.055169579 492:-0.011136816 493:0.34622169 494:-0.018789506 495:0.058408879 496:-0.17709361 497:-0.069964267 498:-0.10124201 499:0.11012041 500:0.12990667 501:0.013382101 502:0.030877592 503:-0.38542074 504:-0.067481846 505:0.12078504 506:0.03969226 507:-0.071186543 508:-0.067100897 509:0.25534996 510:0.076499552 511:-0.0028220364 512:0.12602137 513:0.045668274 514:0.039130047 515:-0.03491053 516:0.0084976647 517:-0.047351602 518:-0.023290193 519:0.031188196 520:-0.049636878 521:-0.095546179 522:0.10948373 523:0.019469997 524:-0.043909721 525:-0.07475704 526:-0.02657314 527:-0.027655741 528:0.053290859 529:0.32360548 530:-0.0076742354 531:-0.090098202 532:0.056898113 533:-0.067380883 534:-0.028311307 535:0.062904082 536:0.011708155 537:-0.11746371 538:-0.02729851 539:-0.035042502 540:-0.035852782 541:0.088722579 542:-0.045793235 543:0.020582899 544:-0.044628266 545:-0.10189927 546:0.032920104 547:-0.041526869 548:-0.018317159 549:-0.019740861 550:-0.060296752 551:0.028463224 552:0.18484087 553:0.041283689 554:-0.073870093 555:-0.024433343 556:0.044949815 557:0.087643951 558:-0.014498709 559:-0.21669641 560:0.025599603 561:-0.10158685 562:-0.11921895 563:0.072481826 564:0.033308204 565:0.044989422 566:-0.23600422 567:0.044406444 568:0.022507044 569:0.088550881 570:-0.017493676 571:0.18555929 572:-0.31242236 573:-0.10079163 574:0.066700011 575:0.029494179 576:-0.14434572 577:0.085649662 578:-0.086694315 579:0.10406616 580:-0.12711146 581:-0.36253077 582:-0.12363236 583:-0.12157923 584:-0.18986051 585:0.032365955 586:-0.2114379 587:0.19236451 588:-0.23501334 589:-0.023152059 590:0.12664267 591:-0.043425146 592:0.032487679 593:-0.045352068 594:-0.065859407 595:0.063182525 596:0.0084239459 597:-0.059809923 598:-0.38611689 599:0.019419655 600:0.04421787 601:-0.11004805 602:0.033076473 603:-0.0063025821 604:-0.065237343 605:-0.059199721 606:0.10365848 607:-0.08654777 608:-0.14444622 609:-0.0073976181 610:-0.042021826 611:0.054635208 612:0.079635069 613:-0.030949775 614:-0.091012448 615:0.032211073 616:-0.051268078 617:0.24655829 618:0.036751021 619:-0.0014021331 620:0.16747576 621:0.035594698 622:-0.35728136 623:0.097748764 624:0.0079349624 625:-0.029465796 626:0.092009462 627:-0.08802256 628:0.12722711 629:-0.0082427803 630:-0.035224177 631:0.16490959 632:0.06798052 633:-0.15348957 634:0.072431862 635:0.039791211 636:-0.066031538 637:-0.0091377348 638:-0.15109947 639:-0.018496834 640:-0.035505883 641:-0.073274702 642:-0.13493374 643:-0.063233934 644:0.15787223 645:-0.011289843 646:0.055535823 647:-0.014327583 648:-0.085733548 649:0.021040061 650:-0.090629146 651:-0.0020418465 652:-0.089704864 653:0.1023532 654:0.005550574 655:-0.032693468 656:0.0088073723 657:-0.24738392 658:-0.026837457 659:-0.15222374 660:-0.070298687 661:0.0079720775 662:0.11411997 663:0.06890884 664:-0.012514656 665:0.10151051 666:-0.0184526 667:-0.15038186 668:-0.39709732 669:0.042683192 670:-0.013456639 671:0.033912323 672:-0.026326941 673:0.031641584 674:0.00096857618 675:0.12394536 676:-0.03871908 677:0.19220996 678:0.18838212 679:0.027639125 680:-0.13407961 681:-0.20029293 682:-0.01718805 683:0.031440403 684:0.085324429 685:-0.030029951 686:-0.024702458 687:0.081530362 688:-0.048670594 689:0.031044722 690:-0.11410201 691:-0.23099069 692:0.017745936 693:-0.017244048 694:0.099475875 695:-0.021700813 696:0.026454648 697:-0.10368268 698:0.04104403 699:0.074776679 700:-0.12213284 701:0.0063354303 702:-0.2774221 703:-0.15279309 704:-0.09788283 705:-0.067626439 706:0.070732988 707:0.033883493 708:0.090226322 709:0.079391658 710:-0.15494962 711:-0.030201504 712:0.33929491 713:-0.20452785 714:0.17503549 715:-0.0051018954 716:-0.087800719 717:0.0059515135 718:-0.14024819 719:0.096872002 720:0.064466961 721:0.017847866 722:-0.048010826 723:-0.056698766 724:-0.094049349 725:-0.084785178 726:-0.12005831 727:0.11092144 728:-0.026518498 729:-0.007000037 730:-0.067033358 731:0.014684734 732:-0.17094231 733:0.10546038 734:-0.42029491 735:0.0084597077 736:-0.068165578 737:0.082528383 738:0.2083898 739:-0.08864449 740:0.021790123 741:0.28758445 742:0.017886922 743:0.092095181 744:-0.008921992 745:0.0067123068 746:-0.030649435 747:-0.057618596 748:0.20704086 749:-0.054044459 750:0.067678787 751:-0.21008103 752:-0.017738394 753:-0.069898218 754:0.11084279 755:0.067200057 756:0.25225466 757:-0.13574144 758:0.0078004817 759:0.16912702 760:-0.43607807 761:0.028374176 762:-0.0087650707 763:0.30854067 764:-0.071976475 765:-0.014208919 766:-0.026868533 767:0.029354224 768:-0.19801411 769:0.022545222 770:0.01459036 771:-0.10584314 772:0.10415976 773:0.096826151 774:0.10189231 775:0.17798245 776:0.1109665 777:0.017774485 778:0.049702432 779:-0.072455436 780:0.026954368 781:0.098335743 782:0.044931542 783:0.14557704 784:-0.00238357 785:-0.17640319 786:-0.19013579 787:-0.13106215 788:-0.15377931 789:0.069758855 790:0.19013806 791:-0.37975112 792:-0.14056897 793:-0.066562332 794:0.025285905 795:-0.027505338 796:-0.013267146 797:0.092477024 798:0.059878767 799:0.1803757 800:0.016592853 801:0.081475057 802:-0.042056814 803:-0.010949115 804:0.037832975 805:0.14783165 806:0.11493894 807:0.0010115424 808:0.03439422 809:0.31778899 810:-0.055063821 811:-0.0084380079 812:0.04887661 813:-0.4351176 814:-0.25036243 815:-0.11221504 816:0.14984828 817:0.079053834 818:-0.062611192 819:-0.023321752 820:-0.071405232 821:0.046361201 822:0.054331005 823:-0.048795331 824:0.04352117 825:0.023970053 826:-0.071116708 827:0.16032484 828:-0.026453847 829:0.039995555 830:0.050674915 831:-0.17544821 832:-0.18742661 833:0.10797635 834:0.25112218 835:0.10517628 836:-0.044813555 837:0.14297497 838:0.058248654 839:0.013572906 840:0.0072424221 841:-0.0065266746 842:-0.06340529 843:0.015146093 844:-0.045972615 845:0.0025484622 846:0.038439643 847:-0.020602537 848:0.084565222 849:0.040621549 850:0.079068743 851:0.0074971165 852:-0.091971368 853:0.0048998641 854:-0.077983372 855:0.03188125 856:-0.57008505 857:-0.096844316 858:-0.075282902 859:0.14201103 860:0.031707428 861:0.039960012 862:-0.12549824 863:-0.11817899 864:-0.033015728 865:-0.014566996 866:-0.12689711 867:0.11308008 868:-0.23113957 869:-0.062260333 870:0.38235345 871:-0.089995496 872:0.032314915 873:-0.1336863 874:-0.29290172 875:-0.019365542 876:-0.0053048776 877:0.10731881 878:-0.059692118 879:0.061484713 880:-0.083928533 881:-0.062871896 882:0.15992479 883:-0.086673371 884:0.12248041 885:0.077853575 886:-0.094587646 887:-0.046334032 888:-0.074510656 889:0.16534775 890:0.056393351 891:0.22767566 892:-0.051574953 893:0.12461556 894:-0.055260837 895:-0.092479013 896:0.013521546 897:-0.32693312 898:0.049858592 899:0.099638775 900:0.019136971 901:0.054047298 902:0.17362462 903:0.0057949987 904:0.017966295 905:-0.0043957448 906:-0.51111144 907:-0.11409514 908:0.073835023 909:-0.09081766 910:0.0045633344 911:0.045995142 912:0.048841458 913:-0.047323171 914:-0.14110273 915:-0.016212177 916:0.25772461 917:-0.10617875 918:-0.08029864 919:-0.066344798 920:0.11996998 921:0.16486207 922:0.2228118 923:0.23506801 924:-0.066635035 925:-0.080084793 926:-0.030995412 927:-0.086669005 928:-0.0052035293 929:-0.04616297 930:-0.00090095453 931:0.056904525 932:0.12736164 933:0.11102427 934:-0.02309276 935:-0.060033645 936:-0.056348026 937:-0.015198681 938:-0.18289101 939:0.065158293 940:0.017392922 941:-0.17298867 942:-0.15003487 943:-0.036738362 944:0.045797538 945:-0.031066177 946:0.015537163 947:-0.11609022 948:-0.22876661 949:0.062916331 950:0.14074743 951:0.0081809824 952:0.22647861 953:-0.46156412 954:0.09649872 955:-0.21236302 956:-0.048311494 957:-0.030973233 958:-0.2107932 959:-0.072638154 960:0.007102076 961:0.041285463 962:-0.09380658 963:-0.070540696 964:0.070555732 965:-0.0071373414 966:-0.0086046904 967:0.01197209 968:-0.13106799 969:-0.12573971 970:-0.14156704 971:-0.11137532 972:0.017051972 973:0.11962798 974:-0.019899601 975:-0.045082256 976:0.21361196 977:-0.13800621 978:0.014496379 979:0.18431184 980:-0.11190347 981:-0.037795264 982:0.057931889 983:0.09120401 984:0.26932487 985:-0.036270969 986:-0.11800796 987:0.11962319 988:-0.038339425 989:0.046385802 990:0.057197727 991:-0.070036687 992:-0.14751759 993:-0.0032878611 994:-0.15483142 995:0.06327191 996:0.13037698 997:0.049104091 998:0.021016262 999:-0.0030679421 1000:-0.13105984 1001:-0.23349817 1002:0.017070452 1003:0.072232872 1004:-0.010807946 1005:0.0029046456 1006:-0.15047136 1007:-0.076984376 1008:-0.064680032 1009:-0.052957725 1010:-0.13321304 1011:0.12612762 1012:0.38145238 1013:0.10530466 1014:-0.22661868 1015:-0.090863697 1016:-0.14936668 1017:0.19800879 1018:-0.055985857 1019:0.1573765 1020:-0.10071231 1021:-0.096808232 1022:0.090994492 1023:0.1533307 1024:-0.017513234 1025:-0.02098188 1026:-0.070423335 1027:-0.023233812 1028:-0.055650417 1029:0.065226309 1030:-0.068707474 1031:0.048133019 1032:0.17050143 1033:-0.10946351 1034:-0.075608782 1035:-0.084615625 1036:-0.099360995 1037:0.035516355 1038:0.058630273 1039:0.050472148 1040:-0.25461674 1041:-0.14792573 1042:0.057667293 1043:-0.0024534795 1044:-0.09478686 1045:-0.0051792092 1046:-0.0038949214 1047:0.17118633 1048:-0.0037772865 1049:-0.06166723 1050:0.035712611 1051:-0.071744479 1052:-0.088832438 1053:0.063406974 1054:0.057737801 1055:-0.14991771 1056:-0.031795464 1057:-0.14571287 1058:0.091688208 1059:-0.076645479 1060:-0.010936356 1061:0.032454398 1062:0.12727329 1063:-0.033824898 1064:-0.076381512 1065:-0.33554205 1066:0.072542749 1067:0.097426161 1068:0.19906661 1069:0.12106487 1070:-0.068143986 1071:-0.078445606 1072:0.006492882 1073:-0.00053704513 1074:5.232128e-05 1075:-0.067187034 1076:-0.11510228 1077:-0.058627557 1078:-0.1551978 1079:-0.11355455 1080:-0.12819104 1081:-0.078610323 1082:-0.16479367 1083:-0.23540726 1084:-0.026857546 1085:-0.056702167 1086:0.1653557 1087:-0.0018247929 1088:-0.25334713 1089:0.022421675 1090:0.040008191 1091:-0.024541384 1092:0.14886789 1093:0.18094899 1094:-0.12161358 1095:-0.054506082 1096:-0.1559903 1097:0.092939377 1098:-0.025968973 1099:-0.20929174 1100:0.12588456 1101:-0.082019553 1102:-0.038263135 1103:-0.38268003 1104:-0.078739934 1105:0.22545156 1106:-0.096516676 1107:-0.046241857 1108:0.072673582 1109:0.051629044 1110:0.055169478 1111:-0.067929 1112:-0.10049862 1113:-0.027749114 1114:-0.19045153 1115:0.052048471 1116:-0.011208635 1117:0.16750018 1118:-0.14014861 1119:0.062794976 1120:0.050402615 1121:0.013727547 1122:-0.091037557 1123:0.039513804 1124:-0.1209998 1125:0.068675481 1126:0.18227334 1127:0.13539338 1128:-0.041286312 1129:-0.1189759 1130:-0.035264328 1131:0.15821785 1132:0.3075836 1133:-0.009116699 1134:-0.15522194 1135:0.037763398 1136:-0.10314533 1137:0.061169587 1138:0.014092952 1139:-0.041530661 1140:-0.063060477 1141:-0.013272989 1142:0.10149831 1143:0.2272781 1144:0.097759567 1145:-0.12488893 1146:-0.099936053 1147:0.060010318 1148:-0.04886825 1149:-0.0029908093 1150:0.031885382 1151:-0.0093543418 1152:-0.12282474 1153:-0.078343868 1154:-0.03487077 1155:-0.21880393 1156:-0.00028642369 1157:0.13523342 1158:-0.21436827 1159:-0.01405562 1160:-0.09592998 1161:-0.074010208 1162:-0.073531911 1163:-0.12060119 1164:0.050654002 1165:-0.064640261 1166:-0.21107993 1167:-0.047680639 1168:0.17505063 1169:-0.0025378694 1170:-0.039102267 1171:-0.094376303 1172:0.031127585 1173:-0.13682288 1174:0.024488706 1175:0.21840526 1176:0.12389121 1177:0.12855601 1178:-0.021247538 1179:-0.32015917 1180:-0.101432 1181:-0.030836126 1182:0.029207187 1183:-0.05947246 1184:0.093847722 1185:-0.21951891 1186:0.39173239 1187:0.042597041 1188:0.24263424 1189:0.026133968 1190:-0.12556507 1191:-0.017717926 1192:0.089224346 1193:0.1713319 1194:0.057670794 1195:0.074755162 1196:0.072698861 1197:-0.1866557 1198:0.026616463 1199:0.0099379765 1200:0.0361645 1201:-0.077684209 1202:-0.2634418 1203:0.059301291 1204:0.0092010573 1205:-0.1151318 1206:0.15192036 1207:0.10944343 1208:-0.25790817 1209:0.043269154 1210:-0.0084004411 1211:0.27359319 1212:0.08454226 1213:-0.047405712 1214:0.018627787 1215:0.033397578 1216:0.19681169 1217:-0.15161288 1218:-0.11820239 1219:0.044503834 1220:0.095688343 1221:-0.092085205 1222:0.17077912 1223:-0.0081431754 1224:0.080147527 1225:0.023710227 1226:-0.089195177 1227:-0.15824538 1228:0.15063858 1229:0.15068546 1230:0.06750229 1231:0.13357167 1232:-0.015188043 1233:-0.16849802 1234:0.15679941 1235:-0.06878043 1236:0.079103522 1237:0.37692025 1238:-0.18828487 1239:0.0039822315 1240:0.12064802 1241:-0.065010734 1242:0.10020622 1243:0.31177098 1244:-0.13497935 1245:-0.021497635 1246:0.15009028 1247:0.010995144 1248:0.05020579 1249:-0.011088179 1250:-0.062959842 1251:0.26287436 1252:-0.099415533 1253:0.0041219057 1254:-0.041532535 1255:0.084531642 1256:0.15154903 1257:0.047871623 1258:-0.044393022 1259:0.096437156 1260:0.11949496 1261:-0.014241603 1262:-0.033556018 1263:0.030511875 1264:-0.018549785 1265:-0.072068341 1266:0.3718774 1267:-0.11879639 1268:0.068313375 1269:0.065062627 1270:-0.35780311 1271:-0.074128851 1272:0.10233057 1273:0.13160084 1274:-0.11388745 1275:0.12177572 1276:0.016450886 1277:-0.0082027093 1278:-0.50427896 1279:-0.062801503 1280:-0.25760078 1281:0.0067849467 1282:-0.049354482 1283:-0.017520318 1284:0.02726738 1285:-0.14734781 1286:-0.014544105 1287:0.23602034 1288:-0.15091082 1289:-0.29667729 1290:0.023316208 1291:-0.029906539 1292:0.09082263 1293:0.02578776 1294:0.060901567 1295:-0.12822482 1296:0.25736147 1297:0.040555343 1298:-0.014766648 1299:0.19653745 1300:0.0014198483 1301:0.060757637 1302:0.055315532 1303:0.018864615 1304:-0.011455614 1305:-0.015793948 1306:0.026228482 1307:0.062759951 1308:0.046400927 1309:0.0040734923 1310:0.22806731 1311:-0.081897035 1312:-0.12393545 1313:0.031198541 1314:0.049452014 1315:0.0059121731 1316:-0.016688975 1317:-0.31762597 1318:0.22974181 1319:0.00035570606 1320:-0.1265603 1321:-0.30654868 1322:0.20457692 1323:-0.05440788 1324:0.0026704706 1325:0.22054024 1326:0.19431284 1327:-0.048968285 1328:-0.092351034 1329:0.04030291 1330:-0.064833604 1331:0.04374617 1332:0.06013193 1333:-0.054516263 1334:-0.15214276 1335:0.0046890005 1336:-0.039188817 1337:-0.14392926 1338:-0.72615021 1339:-0.070180021 1340:-0.14807843 1341:-0.020012863 1342:-0.18294671 1343:0.055269431 1344:-0.15125716 1345:0.04365661 1346:-0.04343826 1347:-0.0006032043 1348:-0.073828153 1349:-0.16991438 1350:-0.073081508 1351:0.07636176 1352:-0.13724177 1353:0.18799196 1354:-0.11277382 1355:0.016427845 1356:-0.051835626 1357:-0.1096172 1358:-0.079233468 1359:-0.1049635 1360:0.15899071 1361:-0.11513755 1362:0.092165172 1363:0.073295966 1364:0.2697345 1365:-0.073667303 1366:-0.17310815 1367:0.11369298 1368:0.00085613405 1369:0.042990733 1370:-0.070861861 1371:-0.036444712 1372:-0.081899822 1373:0.086480126 1374:-0.046116434 1375:-0.044155564 1376:0.15434709 1377:0.24946678 1378:0.042300962 1379:-0.023860145 1380:-0.039583892 1381:-0.23780499 1382:0.10210589 1383:0.14485826 1384:0.27846992 1385:-0.0067593954 1386:0.036949728 1387:0.079767749 1388:0.15397806 1389:-0.20074959 1390:-0.018955823 1391:-0.094601803 1392:0.13738771 1393:-0.0057658125 1394:-0.066595644 1395:-0.036889073 1396:0.14051902 1397:0.072460227 1398:-0.13033229 1399:-0.0033776003 1400:-0.055801969 1401:0.061816745 1402:-0.12144095 1403:0.11157048 1404:0.21503688 1405:0.25280285 1406:-0.092308462 1407:-0.02526395 1408:-0.20026623 1409:0.043998525 1410:0.066725954 1411:0.043977987 1412:-0.03662353 1413:-0.02372721 1414:-0.2144326 1415:0.17287238 1416:-0.0057675005 1417:0.099897452 1418:-0.017614653 1419:0.1001806 1420:-0.12486484 1421:-0.18463446 1422:0.021170966 1423:-0.041175708 1424:-0.19932424 1425:-0.051847547 1426:-0.010909041 1427:-0.098318607 1428:-0.054655366 1429:0.035350945 1430:0.056316376 1431:0.010344788 1432:-0.021415647 1433:0.028084328 1434:0.00079946365 1435:0.037103772 1436:-0.042201817 1437:-0.29816487 1438:0.059503026 1439:0.06301634 1440:0.12573889 1441:-0.047930479 1442:-0.083138578 1443:0.14824332 1444:-0.59725022 1445:0.12842232 1446:0.0021072128 1447:0.065756477 1448:0.18287323 1449:0.096578769 1450:-0.3079612 1451:-0.25414261 1452:0.0098837744 1453:-0.16139489 1454:-0.058320075 1455:-0.068250686 1456:-0.061371081 1457:-0.06086231 1458:0.25203723 1459:0.16811539 1460:0.038357604 1461:-0.04990242 1462:-0.072719097 1463:0.30605766 1464:-0.19448709 1465:-0.080409266 1466:-0.029139683 1467:0.10918599 1468:-0.35222119 1469:0.17450702 1470:0.48605239 1471:-0.026656026 1472:0.10607027 1473:0.026712611 1474:0.072939649 1475:0.042252049 1476:0.089955725 1477:-0.02436189 1478:0.021686528 1479:-0.10943805 1480:-0.057875749 1481:-0.013243795 1482:-0.07521978 1483:0.21139087 1484:0.014987324 1485:-0.0756713 1486:0.033004407 1487:-0.19745724 1488:0.019222088 1489:0.031284861 1490:-0.11841676 1491:0.011251165 1492:0.19700745 1493:-0.02299599 1494:0.068778701 1495:0.016615078 1496:0.0076716077 1497:0.074557915 1498:0.17876704 1499:0.031553425 1500:-0.15792528 1501:0.20563966 1502:-0.084197693 1503:-0.0088116769 1504:0.037790444 1505:-0.19582565 1506:-0.045923546 1507:0.10703234 1508:-0.051640954 1509:-0.081040487 1510:0.14520818 1511:0.075358994 1512:-0.11663797 1513:-0.10667478 1514:-0.04472819 1515:0.004499109 1516:-0.02588067 1517:-0.10198792 1518:0.019131057 1519:0.082763538 1520:0.033880942 1521:-0.12021275 1522:0.12830143 1523:-0.20394716 1524:-0.052907713 1525:0.077240475 1526:-0.23860262 1527:-0.0065448727 1528:0.06331984 1529:-0.043241613 1530:0.015934575 1531:0.039981637 1532:0.13387053 1533:0.036718633 1534:-0.096545935 1535:-0.052918922 1536:0.1443335 1537:-0.015977809 1538:0.087200306 1539:-0.062241811 1540:0.11279686 1541:0.044320732 1542:-0.04375083 1543:-0.056978628 1544:0.028848704 1545:0.00086376874 1546:0.044072263 1547:-0.16611303 1548:-0.19402531 1549:0.01274885 1550:0.20372918 1551:0.22377227 1552:-0.21256937 1553:0.13233399 1554:0.080596849 1555:0.14668168 1556:0.20036839 1557:-0.070936523 1558:0.036730129 1559:-0.018196696 1560:-0.13348699 1561:-0.10122141 1562:-0.14766762 1563:-0.083992265 1564:-0.022302154 1565:-0.083847113 1566:0.057777669 1567:-0.013372147 1568:-0.051064454 1569:-0.070670269 1570:0.10196285 1571:0.12511055 1572:0.10402375 1573:0.098833546 1574:0.1110588 1575:0.083184004 1576:-0.040100567 1577:0.030790161 1578:0.016484713 1579:0.04810106 1580:0.11032004 1581:0.1190761 1582:0.040495418 1583:-0.092616543 1584:-0.026290331 1585:0.084972672 1586:0.14520988 1587:-0.013764737 1588:0.038576275 1589:-0.062424619 1590:-0.25260928 1591:-0.072798431 1592:0.1242523 1593:-0.075504266 1594:0.13738328 1595:0.07976412 1596:-0.38483691 1597:0.13996312 1598:0.12318282 1599:-0.14666329 1600:-0.16869482 1601:-0.13207571 1602:-0.25479287 1603:0.077626914 1604:0.05209326 1605:0.2904911 1606:-0.3580049 1607:0.048476703 1608:-0.12023861 1609:-0.098998383 1610:0.031009236 1611:-0.068901338 1612:0.065132484 1613:0.26265693 1614:-0.040309109 1615:0.33035135 1616:0.46495193 1617:0.0039507854 1618:-0.066608757 1619:0.18963346 1620:-0.065393612 1621:-0.22007959 1622:0.22381744 1623:0.033382177 1624:-0.075770132 1625:0.049973283 1626:0.1803952 1627:-0.13848451 1628:-0.077180058 1629:0.050423965 1630:0.07663364 1631:0.10807978 1632:-0.17833446 1633:-0.013959578 1634:0.12379115 1635:-0.065768905 1636:-0.085214876 1637:-0.14000474 1638:0.14383565 1639:-0.022168906 1640:-0.0089179194 1641:-0.16103165 1642:0.013533975 1643:0.062038224 1644:-0.058327839 1645:0.13179916 1646:0.098736942 1647:0.1588995 1648:0.064054355 1649:0.20335129 1650:-0.11222805 1651:-0.1569007 1652:0.0082005486 1653:-0.038983263 1654:-0.04943813 1655:-0.012890358 1656:0.10923378 1657:0.14825289 1658:0.14642107 1659:0.0023206822 1660:0.032459468 1661:-0.049576923 1662:0.032592796 1663:-0.039377615 1664:-0.076585047 1665:0.042613104 1666:0.12405162 1667:0.092942223 1668:0.069311261 1669:0.19132359 1670:-0.029115079 1671:0.10869873 1672:-0.008171971 1673:0.028775031 1674:-0.048738718 1675:0.12526575 1676:-0.027500367 1677:0.01499509 1678:0.083737165 1679:-0.079638071 1680:-0.073005073 1681:-0.28167251 1682:-0.055435739 1683:0.067919023 1684:0.012484556 1685:-0.10961475 1686:-0.075305261 1687:0.071869895 1688:0.075819239 1689:0.053417541 1690:0.10258332 1691:-0.011698434 1692:0.15796649 1693:-0.00047556695 1694:-0.22512409 1695:0.13204293 1696:0.054297801 1697:-0.001802409 1698:-0.046073675 1699:0.25607529 1700:-0.2223729 1701:0.019913938 1702:0.087199375 1703:-0.028681479 1704:0.00029496691 1705:-0.1126246 1706:-0.033116437 1707:-0.24674626 1708:0.19037934 1709:0.2227349 1710:0.11509744 1711:0.0018382482 1712:0.29711074 1713:0.006314755 1714:-0.090790495 1715:-0.017457351 1716:0.083081372 1717:-0.05971982 1718:0.032136247 1719:-0.16098776 1720:0.12918246 1721:-0.013754328 1722:0.13629948 1723:-0.071901314 1724:0.25280622 1725:-0.014675616 1726:-0.12609358 1727:-0.16564511 1728:0.089996427 1729:-0.041986734 1730:0.06317424 1731:-0.15223733 1732:-0.11329085 1733:-0.034535039 1734:-0.030564509 1735:-0.053722553 1736:0.089336567 1737:0.013927432 1738:0.010193242 1739:-0.0099620633 1740:0.10334643 1741:-0.087443732 1742:0.10497539 1743:0.11091223 1744:-0.1738942 1745:-0.25232351 1746:-0.036274612 1747:0.11679549 1748:-0.0096267853 1749:-0.031409629 1750:-0.11513066 1751:-0.10539822 1752:-0.13677071 1753:-0.10079344 1754:0.041453466 1755:0.1746904 1756:0.24521285 1757:-0.16269431 1758:0.088852309 1759:-0.0073071895 1760:0.07762 1761:-0.065794706 1762:0.062204752 1763:0.1269231 1764:-0.030626738 1765:0.0025123337 1766:-0.0017378107 1767:-0.1334457 1768:-0.020871647 1769:0.14401165 1770:-0.13272013 1771:-0.13498205 1772:0.083080761 1773:0.034963384 1774:0.053349558 1775:-0.14025338 1776:0.16326499 1777:-0.062161382 1778:0.034073412 1779:-0.07258302 1780:0.076227598 1781:-0.23779917 1782:-0.012101041 1783:0.067191914 1784:-0.015694695 1785:-0.07037434 1786:0.034628361 1787:0.0022746758 1788:0.030131586 1789:0.21603048 1790:0.21125756 1791:-0.15152721 1792:-0.072415888 1793:0.019451248 1794:0.24862128 1795:0.097673416 1796:-0.083967566 1797:0.26069281 1798:-0.086232528 1799:-0.20856549 1800:0.017294973 1801:0.069231376 1802:0.020757891 1803:-0.10710774 1804:-0.027638737 1805:-0.12689562 1806:-0.027112523 1807:-0.10969456 1808:0.0004287528 1809:0.085490368 1810:-0.03496946 1811:-0.10324787 1812:0.012657775 1813:0.039525606 1814:-0.2032131 1815:-0.12692402 1816:0.15289234 1817:0.20763396 1818:0.0092779603 1819:0.013889744 1820:0.099392496 1821:-0.0011035872 1822:0.024323519 1823:-0.025177708 1824:0.28554186 1825:-0.068006247 1826:0.072199821 1827:-0.079536572 1828:0.059320122 1829:-0.026665557 1830:-0.27124685 1831:0.0021708005 1832:0.16153191 1833:-0.12019859 1834:-0.078130096 1835:0.1738116 1836:-0.10468453 1837:-0.0296183 1838:0.040509544 1839:0.033156119 1840:-0.011073841 1841:0.075102054 1842:0.37997195 1843:0.077463605 1844:-0.19127597 1845:0.19726293 1846:-0.058565564 1847:-0.045549918 1848:-0.1739127 1849:0.10819021 1850:-0.15547776 1851:-0.17372105 1852:0.14797968 1853:0.067796156 1854:0.0051713018 1855:-0.070961431 1856:0.18565495 1857:-0.17305422 1858:0.020015931 1859:-0.06590309 1860:0.046637002 1861:0.114411 1862:0.020435957 1863:0.070289053 1864:0.24265121 1865:-0.26460469 1866:-0.16172083 1867:-0.048791487 1868:0.16667159 1869:-0.078264467 1870:-0.2475251 1871:0.09802749 1872:-0.14334695 1873:0.19041219 1874:0.063943319 1875:-0.09130393 1876:0.063107252 1877:-0.074843675 1878:-0.14065295 1879:-0.0045883162 1880:-0.030598374 1881:-0.042407691 1882:0.080445766 1883:-0.017951811 1884:0.02030378 1885:0.15397587 1886:-0.036095973 1887:-0.20517287 1888:-0.12090109 1889:0.02573137 1890:-0.038362283 1891:-0.0026759899 1892:0.0450994 1893:-0.2999301 1894:0.045089167 1895:-0.1327142 1896:0.088048257 1897:-0.47285065 1898:0.098506361 1899:-0.15551421 1900:-0.2079958 1901:-0.10411045 1902:0.117901 1903:0.072840907 1904:0.025015093 1905:0.16287474 1906:0.024865279 1907:0.11394562 1908:0.14725743 1909:-0.22866927 1910:-0.15986034 1911:-0.081442446 1912:-0.082423165 1913:-0.026063656 1914:-0.056520641 1915:0.019277815 1916:-0.059418377 1917:-0.090669975 1918:0.0010888492 1919:-0.12123251 1920:0.0073984107 1921:-0.1472894 1922:-0.14663628 1923:0.060187392 1924:-0.087668076 1925:-0.044204406 1926:-0.17805435 1927:-0.062387243 1928:0.21731544 1929:0.15981103 1930:-0.250552 1931:-0.10823626 1932:-0.17026627 1933:-0.0082833609 1934:-0.055182345 1935:0.24309088 1936:-0.18798129 1937:-0.1125 1938:-0.23433441 1939:0.017175557 1940:0.17873432 1941:0.20318335 1942:0.29082808 1943:0.27622831 1944:-0.0084818751 1945:0.13622178 1946:-0.097928755 1947:-0.18136618 1948:0.076779641 1949:-0.10166301 1950:-0.12991181 1951:-0.10937138 1952:-0.018112995 1953:-0.0098460913 1954:0.012949205 1955:0.015754586 1956:-0.16228928 1957:-0.097884931 1958:0.0080112983 1959:0.086299591 1960:-0.12708513 1961:-0.025679022 1962:0.019677944 1963:-0.016397988 1964:-0.012583725 1965:-0.08935295 1966:0.20145014 1967:-0.10647536 1968:-0.095613852 1969:-0.01675991 1970:0.033368144 1971:0.11738273 1972:0.00085657195 1973:-0.2224496 1974:-0.11091348 1975:-0.13046324 1976:-0.036060821 1977:-0.09322197 1978:0.019549893 1979:0.00095552951 1980:0.16714214 1981:-0.18185645 1982:-0.033911083 1983:-0.060045999 1984:0.12612179 1985:0.0074827052 1986:-0.018969113 1987:-0.051347885 1988:0.24119247 1989:0.047867171 1990:0.028458297 1991:-0.016272951 1992:0.041240253 1993:0.14040835 1994:0.18852305 1995:0.033249382 1996:0.1817535 1997:-0.028020509 1998:0.028078448 1999:0.19524747 2000:0.051335879 2001:0.050594728 2002:-0.0925145 2003:-0.076055318 2004:0.041233081 2005:-0.090018816 2006:-0.32198831 2007:0.12865551 2008:-0.087082885 2009:0.10953427 2010:0.21069339 2011:-0.076072656 2012:0.083951123 2013:0.16805367 2014:0.012579502 2015:0.022978807 2016:0.0041770646 2017:-0.090432495 2018:-0.092791587 2019:-0.1008265 2020:0.040878426 2021:-0.11379904 2022:-0.17454542 2023:0.22995605 2024:-0.088913254 2025:-0.051910896 2026:0.086794756 2027:0.24213235 2028:-0.035343941 2029:-0.18844357 2030:-0.16335045 2031:-0.089382842 2032:-0.16808364 2033:0.077816807 2034:0.11446159 2035:-0.060522035 2036:-0.064548619 2037:0.16642824 2038:-0.046576191 2039:0.017709952 2040:-0.0082670562 2041:-0.0066504148 2042:0.18529662 2043:-0.023069635 2044:0.11783379 2045:0.023561122 2046:-0.075712308 2047:0.034719858 2048:0.020575337 2049:-0.0057116682 2050:-0.0044915103 2051:-0.14228268 2052:0.010339268 2053:0.057778832 2054:0.17611611 2055:0.03031561 2056:-0.317222 2057:0.025981614 2058:0.039205432 2059:0.013342714 2060:0.070861392 2061:-0.047387742 2062:-0.014244945 2063:0.011175865 2064:0.061329413 2065:0.079237126 2066:0.13462226 2067:0.11820167 2068:-0.28095359 2069:-0.12245008 2070:0.051133864 2071:0.11671527 2072:0.053160951 2073:0.074312299 2074:0.24492119 2075:-0.15119457 2076:0.025586255 2077:0.11460529 2078:0.095687389 2079:0.068602912 2080:-0.0077505228 2081:0.045939412 2082:0.099879652 2083:-0.40569484 2084:0.053519443 2085:0.083800562 2086:-0.11641027 2087:-0.0007567291 2088:-0.027468305 2089:-0.082132503 2090:-0.12885235 2091:-0.046979208 2092:-0.067506559 2093:-0.012358598 2094:-0.084450282 2095:0.21035528 2096:0.23774867 2097:-0.0049739056 2098:0.10439952 2099:-0.079073519 2100:-0.0014106949 2101:0.12123477 2102:0.00897454 2103:-0.0050173127 2104:-0.089315705 2105:0.032837909 2106:0.28113392 2107:0.095950708 2108:-0.028787922 2109:-0.030995918 2110:-0.061221983 2111:-0.099846795 2112:0.38550201 2113:0.099871956 2114:0.025341298 2115:0.082136773 2116:-0.076150633 2117:-0.2840012 2118:0.083418548 2119:0.09663792 2120:-0.28649011 2121:-0.1529727 2122:0.068454601 2123:0.045911662 2124:0.037644148 2125:0.17677613 2126:0.24625394 2127:0.086030215 2128:-0.11811887 2129:-0.090896912 2130:0.18840012 2131:-0.048162736 2132:-0.11189013 2133:0.092925526 2134:-0.024054736 2135:0.25672987 2136:-0.013881942 2137:0.10780965 2138:-0.012466536 2139:-0.14385568 2140:-0.03664878 2141:0.18020917 2142:0.051484428 2143:0.16172311 2144:0.3263782 2145:0.13887846 2146:0.1153816 2147:-0.21607192 2148:0.031779572 2149:-0.092214078 2150:0.003585632 2151:-0.16582552 2152:0.015017067 2153:-0.15684319 2154:0.19753255 2155:-0.15252824 2156:0.10969958 2157:0.081024542 2158:0.18969183 2159:0.096755713 2160:-0.017486222 2161:0.30602589 2162:0.032960016 2163:-0.052069753 2164:-0.12664936 2165:-0.16434509 2166:0.17184511 2167:-0.10061228 2168:-0.072429799 2169:-0.19472201 2170:0.022847168 2171:0.24293478 2172:-0.051768534 2173:0.093569696 2174:0.10700939 2175:0.17788671 2176:0.13407603 2177:-0.058062971 2178:0.14264867 2179:-0.10044233 2180:0.0055822236 2181:0.065932296 2182:-0.27058882 2183:-0.098291717 2184:-0.053186458 2185:0.021732474 2186:0.19020547 2187:-0.20077887 2188:-0.23201542 2189:0.13918926 2190:-0.20830682 2191:-0.13589066 2192:0.032602817 2193:-0.044931047 2194:-0.0062239356 2195:-0.24049909 2196:-0.28078553 2197:0.19570629 2198:-0.044304371 2199:0.11377394 2200:0.11568174 2201:-0.34265375 2202:0.0011609249 2203:0.050894745 2204:-0.091367513 2205:0.0052155252 2206:-0.048268653 2207:-0.085499883 2208:0.21978773 2209:-0.17212774 2210:0.016291229 2211:0.18929496 2212:0.06786 2213:-0.0067880591 2214:-0.21100052 2215:-0.086520121 2216:0.057909258 2217:0.035838664 2218:-0.053024162 2219:-0.068974987 2220:0.20948443 2221:0.23483177 2222:0.081111036 2223:-0.034228973 2224:-0.22782643 2225:-0.065222949 2226:0.003580689 2227:0.082371213 2228:-0.060746692 2229:-0.088391721 2230:-0.059237596 2231:0.018695615 2232:0.013012846 2233:-0.19086556 2234:-0.16508783 2235:-0.29178485 2236:0.037672248 2237:0.068450019 2238:0.080887586 2239:0.17445636 2240:0.1472158 2241:-0.058828507 2242:0.045277134 2243:0.0042191944 2244:0.12039737 2245:-0.073656097 2246:0.026234489 2247:-0.033426449 2248:-0.13997984 2249:0.10580003 2250:0.073708586 2251:-0.013968205 2252:-0.39029291 2253:-0.031169891 2254:-0.17958456 2255:-0.19500472 2256:-0.22346517 2257:-0.070642442 2258:0.028886009 2259:0.0110352 2260:-0.21060438 2261:-0.13486803 2262:-0.14435984 2263:0.011679047 2264:0.075887777 2265:-0.052865256 2266:0.13070914 2267:0.21676293 2268:-0.16172771 2269:-0.027888881 2270:-0.032966025 2271:-0.19168234 2272:0.25147113 2273:-0.038388081 2274:-0.063879311 2275:0.038779262 2276:0.025997164 2277:-0.021506185 2278:-0.078079708 2279:0.098524459 2280:0.17798312 2281:0.19668233 2282:-0.063672602 2283:0.18772496 2284:0.047843117 2285:-0.05695321 2286:0.037319019 2287:-0.0098715741 2288:-0.10940574 2289:0.019957429 2290:-0.28810456 2291:0.14005861 2292:-0.0010803643 2293:0.084884346 2294:0.045235068 2295:0.095180281 2296:0.061628856 2297:-0.10827218 2298:0.039767548 2299:-0.29987523 2300:-0.055345539 2301:0.097640269 2302:0.3048608 2303:-0.078964353 2304:-0.0026174141 2305:0.055754192 2306:0.043761004 2307:0.08423093 2308:-0.047379918 2309:-0.068124369 2310:0.11099164 2311:0.034835353 2312:-0.025713168 2313:-0.036519848 2314:-0.10361217 2315:-0.057542026 2316:0.19280104 2317:0.1431382 2318:-0.093528196 2319:-0.20073378 2320:-0.2351747 2321:-0.075251773 2322:0.1638916 2323:-0.016478181 2324:-0.041514013 2325:0.059696507 2326:0.04123174 2327:-0.049529664 2328:-0.11472785 2329:-0.23617585 2330:0.056989983 2331:0.13749419 2332:0.063031442 2333:0.025751855 2334:0.083866894 2335:0.090202183 2336:-0.1103135 2337:0.0044027315 2338:-0.040728003 2339:0.20018713 2340:0.074023984 2341:0.054261878 2342:-0.080248334 2343:0.10484409 2344:0.061551724 2345:0.0029078024 2346:0.023010226 2347:-0.18418342 2348:-0.0049935258 2349:-0.0062583713 2350:0.10641256 2351:0.15675022 2352:0.52545607 2353:-0.014143938 2354:0.036588807 2355:0.1161095 2356:-0.098086759 2357:0.05984541 2358:-0.10946935 2359:0.076477073 2360:-0.085856132 2361:-0.14003208 2362:-0.17425737 2363:-0.048715793 2364:-0.22918765 2365:-0.0077257981 2366:0.19983524 2367:-0.057701129 2368:-0.11257102 2369:-0.41680953 2370:0.013222614 2371:0.0024597994 2372:-0.043625265 2373:0.14022353 2374:-0.049197573 2375:0.12106754 2376:-0.050924916 2377:0.035816569 2378:0.12503111 2379:0.1285882 2380:0.046307597 2381:-0.037779856 2382:-0.093532398 2383:0.098947838 2384:-0.034181017 2385:0.11989521 2386:0.12822242 2387:0.10067143 2388:-0.075860217 2389:-0.09837053 2390:0.042605542 2391:0.056479 2392:-0.041254893 2393:0.017955279 2394:0.030208487 2395:-0.066093236 2396:0.066530228 2397:0.063622542 2398:0.1735407 2399:-0.0011632468 2400:-0.048275247 2401:-0.079889514 2402:0.1110433 2403:0.14210458 2404:0.1758974 2405:-0.043399066 2406:-0.10374286 2407:-0.015575479 2408:-0.14136867 2409:-0.015684951 2410:-0.052432775 2411:0.16234721 2412:-0.081611291 2413:-0.075969748 2414:-0.06878534 2415:-0.15263107 2416:-0.031829871 2417:-0.0003455691 2418:-0.14311601 2419:0.054419581 2420:0.21197294 2421:-0.095952749 2422:-0.19217607 2423:-0.27019876 2424:0.084838696 2425:-0.17842036 2426:0.2746259 2427:-0.36691892 2428:-0.080752954 2429:0.018052042 2430:-0.011100095 2431:0.12097641 2432:-0.028726203 2433:0.10581838 2434:0.020248065 2435:0.092457712 2436:-0.084257983 2437:-0.12116633 2438:-0.045249559 2439:0.017035376 2440:-0.23072881 2441:0.035142403 2442:-0.095047385 2443:-0.1517195 2444:-0.1339259 2445:-0.19170871 2446:-0.16833261 2447:0.0150928 2448:0.0029955562 2449:-0.0047020307 2450:0.060564846 2451:-0.0974328 2452:0.050753146 2453:0.025946187 2454:0.014471086 2455:-0.00077282364 2456:-0.065700993 2457:-0.028130446 2458:-0.39259082 2459:0.01075338 2460:0.13708703 2461:-0.076123528 2462:-0.02650352 2463:0.011128425 2464:-0.17026757 2465:-0.096065775 2466:-0.15775406 2467:-0.22056094 2468:0.13186541 2469:-0.09179917 2470:0.12478721 2471:0.087013565 2472:-0.15769422 2473:-0.0032668919 2474:0.027894085 2475:0.025448537 2476:-0.23107469 2477:0.19530344 2478:-0.061927263 2479:0.068800792 2480:-0.062654994 2481:0.14126971 2482:-0.023087202 2483:0.31276286 2484:0.018967247 2485:0.14771274 2486:-0.09838526 2487:0.053281985 2488:0.024576603 2489:-0.14569393 2490:0.034170177 2491:0.0037860426 2492:-0.089798585 2493:0.3046633 2494:0.054922797 2495:-0.018847581 2496:-0.040242951 2497:-0.061973814 2498:-0.030466001 2499:0.19866416 2500:0.37624097 2501:-0.16404767 2502:0.0050165639 2503:-0.13035254 2504:-0.061086964 2505:-0.049923424 2506:0.23980817 2507:0.023003506 2508:-0.18195568 2509:0.02069537 2510:-0.14652067 2511:0.12137119 2512:0.019257111 2513:0.23906882 2514:-0.012263138 2515:0.012982045 2516:0.16617867 2517:0.12748042 2518:0.079549335 2519:0.029813457 2520:0.14061354 2521:-0.026377622 2522:-0.16655266 2523:0.067750998 2524:0.069299176 2525:0.1401083 2526:-0.10290369 2527:-0.066064343 2528:0.0095189176 2529:-0.13563895 2530:-0.16849567 2531:0.067975223 2532:-0.26796722 2533:0.090678006 2534:-0.12345992 2535:0.0065743621 2536:0.26733181 2537:0.090856947 2538:0.093221352 2539:-0.098395869 2540:-0.0023552107 2541:0.15562396 2542:-0.062815361 2543:-0.080512956 2544:0.02936874 2545:-0.0050713066 2546:0.072442569 2547:-0.0076074451 2548:-0.11376612 2549:-0.006691312 2550:0.33690345 2551:-0.019074658 2552:0.12535869 2553:0.125661 2554:0.015898 2555:-0.11036444 2556:-0.13760179 2557:0.12247381 2558:-0.16278425 2559:-0.15273474 2560:-0.053808801 2561:-0.072360046 2562:-0.022209233 2563:-0.32657912 2564:-0.05730081 2565:0.1748133 2566:0.33453631 2567:0.0094285216 2568:0.13340269 2569:-0.11973892 2570:0.024635877 2571:-0.17240681 2572:0.031304765 2573:0.15327586 2574:0.24233925 2575:0.21058443 2576:0.010958178 2577:0.11205112 2578:-0.077556282 2579:0.057750933 2580:-0.43943849 2581:-0.17049849 2582:-0.063181229 2583:0.11544399 2584:-0.058975156 2585:-0.033244155 2586:0.030447977 2587:-0.26088828 2588:0.15725261 2589:-0.11141027 2590:0.12888229 2591:-0.21903461 2592:0.15636538 2593:0.15986419 2594:0.068763562 2595:0.23444666 2596:0.26568368 2597:0.031090554 2598:0.088469461 2599:0.056798309 2600:-0.098332122 2601:0.047417384 2602:-0.087168477 2603:-0.20242123 2604:0.16247027 2605:-0.10658957 2606:-0.26234549 2607:-0.043604743 2608:0.025856057 2609:-0.023951679 2610:0.018581396 2611:-0.015825845 2612:0.10578088 2613:-0.083991006 2614:0.053401321 2615:-0.14336003 2616:0.031632043 2617:-0.18646085 2618:0.078244805 2619:-0.17244132 2620:0.074358642 2621:-0.20628457 2622:0.064871445 2623:0.14975084 2624:-0.0052540801 2625:-0.090040274 2626:0.12699416 2627:-0.15488759 2628:0.0043026805 2629:-0.098329499 2630:-0.11549034 2631:0.042304404 2632:0.0851987 2633:0.040315937 2634:0.19737688 2635:-0.071647845 2636:0.21165004 2637:-0.13382027 2638:0.06454248 2639:-0.027505239 2640:0.097748652 2641:-0.02338369 2642:0.050489604 2643:0.14848165 2644:0.085723124 2645:-0.011459552 2646:-0.01613426 2647:0.16028316 2648:-0.074333586 2649:-0.1668421 2650:0.038272358 2651:0.16047785 2652:0.044444084 2653:-0.21124943 2654:0.017775996 2655:0.07081113 2656:-0.045960326 2657:0.027961493 2658:0.14851953 2659:0.069966286 2660:-0.039209347 2661:0.037662126 2662:-0.034062445 2663:0.13486019 2664:-0.11306148 2665:0.1523363 2666:0.094823852 2667:0.33005163 2668:0.066802502 2669:0.097677924 2670:1.1138422e-05 2671:-0.0329566 2672:0.010682893 2673:0.055691525 2674:0.0047358503 2675:-0.22365159 2676:-0.081562094 2677:-0.051159821 2678:-0.073026441 2679:0.098982006 2680:-0.012285456 2681:0.11869536 2682:-0.16181511 2683:0.11623105 2684:-0.084504232 2685:-0.074672155 2686:0.12908311 2687:-0.19961749 2688:0.21710417 2689:-0.090376005 2690:-0.061994076 2691:-0.11812618 2692:-0.055197939 2693:-0.043769579 2694:-0.29741594 2695:0.21100089 2696:0.12222932 2697:0.063524157 2698:0.14756982 2699:0.052776605 2700:0.0038817343 2701:-0.068704315 2702:-0.2448044 2703:-0.013964517 2704:0.099605188 2705:0.00017319148 2706:0.084421143 2707:-0.32942304 2708:-0.0043724538 2709:-0.17956136 2710:0.043496117 2711:-0.082752161 2712:-0.092316851 2713:0.044943858 2714:-0.022692485 2715:0.29099858 2716:-0.11988515 2717:0.038682386 2718:0.3653149 2719:-0.05757783 2720:-0.23399647 2721:0.084815696 2722:0.18838976 2723:-0.039463401 2724:-0.071032695 2725:0.031188721 2726:-0.043679714 2727:-0.32333243 2728:-0.26563075 2729:-0.065278262 2730:0.058756467 2731:-0.055005882 2732:0.061588455 2733:0.055952333 2734:0.046379566 2735:0.20946532 2736:0.031677779 2737:0.061017875 2738:0.23614858 2739:0.05129455 2740:-0.035403982 2741:0.02320528 2742:-0.11266842 2743:0.15042195 2744:-0.15135784 2745:0.079248302 2746:-0.087484367 2747:-0.14032373 2748:-0.05428572 2749:-0.042589739 2750:0.15577915 2751:-0.31606045 2752:0.053814586 2753:0.038059629 2754:-0.033557016 2755:0.21000569 2756:-0.029381126 2757:0.079248212 2758:-0.03005537 2759:-0.006180366 2760:0.045547381 2761:0.30371261 2762:0.062495869 2763:-0.024192493 2764:-0.026485479 2765:-0.11802053 2766:-0.16782747 2767:0.19781326 2768:0.17164576 2769:0.076590881 2770:0.15696828 2771:-0.048057146 2772:0.090350442 2773:0.062881462 2774:-0.087939836 2775:-0.22178763 2776:0.20442095 2777:-0.11155501 2778:0.11798106 2779:-0.016280819 2780:0.07860785 2781:-0.03150861 2782:-0.09273202 2783:-0.074583814 2784:-0.037321769 2785:-0.21174909 2786:-0.05807741 2787:-0.23154868 2788:-0.090925127 2789:0.15484104 2790:0.031375274 2791:0.23184673 2792:0.20676339 2793:0.3495068 2794:-0.11853659 2795:0.048540816 2796:0.043872818 2797:-0.021181392 2798:-0.24521188 2799:0.049537025 2800:-0.04750292 2801:-0.1548844 2802:0.0079423087 2803:0.00012146409 2804:-0.067814298 2805:0.068917274 2806:0.10882124 2807:-0.20992324 2808:0.12977645 2809:-0.014259924 2810:0.10169405 2811:-0.085998245 2812:0.034963414 2813:0.20697784 2814:-0.1406153 2815:0.065585822 2816:-0.29716784 2817:0.077617638 2818:-0.037326541 2819:-0.021097213 2820:-0.022283878 2821:-0.13283956 2822:0.083204009 2823:0.14263493 2824:-0.11416245 2825:-0.10289333 2826:-0.0028334563 2827:0.096168824 2828:-0.11754017 2829:-0.23259258 2830:-0.041552719 2831:0.027240308 2832:0.056819916 2833:0.0049398965 2834:-0.049295001 2835:-0.038717948 2836:0.054615047 2837:0.033164304 2838:0.036346711 2839:-0.12983574 2840:0.043375317 2841:-0.17988251 2842:-0.12427355 2843:0.028738195 2844:0.24529928 2845:-0.056209844 2846:-0.21886009 2847:-0.028616061 2848:0.056565948 2849:0.027345667 2850:-0.10108265 2851:-0.021263983 2852:-0.073404215 2853:-0.09759409 2854:0.086438164 2855:-0.029022615 2856:0.078945071 2857:0.11473523 2858:0.14713757 2859:-0.0039906562 2860:-0.13867931 2861:-0.053738322 2862:-0.055435281 2863:-0.25292543 2864:0.11062542 2865:-0.054867823 2866:-0.048337728 2867:0.012310637 2868:0.12880985 2869:0.16527945 2870:0.20157732 2871:-0.34279802 2872:-0.017439365 2873:0.070762433 2874:-0.044608563 2875:0.064543396 2876:-0.091428712 2877:0.077989697 2878:0.095392987 2879:0.13798323 2880:0.090813152 2881:-0.0075876154 2882:-0.062242609 2883:-0.17337723 2884:0.28115129 2885:-0.10019743 2886:0.026742276 2887:0.11021509 2888:-0.086926721 2889:-0.064255171 2890:-0.074084744 2891:0.12902258 2892:-0.012425061 2893:0.1953508 2894:-0.20137934 2895:0.0057815937 2896:0.031255517 2897:-0.1020623 2898:0.19093476 2899:0.11271139 2900:0.045096535 2901:-0.13556658 2902:-0.057900015 2903:0.03219758 2904:0.023619775 2905:-0.10935399 2906:0.025941022 2907:0.059996177 2908:0.19005248 2909:0.1004393 2910:-0.0089820335 2911:0.10972061 2912:0.024238685 2913:0.30923015 2914:0.010783643 2915:-0.16329211 2916:-0.035965893 2917:0.2175355 2918:-0.022709455 2919:-0.38694516 2920:0.28175309 2921:-0.2057122 2922:-0.088965796 2923:-0.20039576 2924:-0.035003182 2925:-0.010577986 2926:-0.10634146 2927:-0.029880317 2928:-0.12174018 2929:0.015167057 2930:0.30847049 2931:-0.048392173 2932:0.084335834 2933:0.019197969 2934:-0.18595195 2935:0.0029731714 2936:0.10885749 2937:-0.12715499 2938:-0.073526122 2939:-0.076050915 2940:-0.0052517806 2941:-0.097806945 2942:0.16138132 2943:0.26347524 2944:0.22035174 2945:0.18944052 2946:0.05146144 2947:-0.12566152 2948:0.12925895 2949:-0.2923443 2950:-0.051484559 2951:0.014932539 2952:-0.14898799 2953:-0.014626727 2954:-0.010000205 2955:0.23291899 2956:-0.03756921 2957:-0.0084505687 2958:0.060748916 2959:-0.18223831 2960:0.055072423 2961:0.0078957258 2962:0.062977612 2963:-0.086712196 2964:0.10936601 2965:-0.23262022 2966:-0.150584 2967:0.27125463 2968:-0.17497116 2969:0.034370642 2970:-0.014258702 2971:0.14699331 2972:0.18712468 2973:0.021445528 2974:-0.1747676 2975:0.12133291 2976:0.12127941 2977:-0.13450417 2978:-0.066041246 2979:0.25485331 2980:-0.1514637 2981:-0.13075992 2982:0.061159424 2983:0.10311583 2984:0.098661058 2985:-0.025736561 2986:-0.076677248 2987:-0.029049674 2988:-0.13570963 2989:-0.1983151 2990:0.1476223 2991:0.018784426 2992:-0.011098246 2993:0.027292851 2994:0.12445319 2995:0.06509465 2996:0.054179408 2997:0.078315891 2998:-0.29263166 2999:0.21966968 3000:-0.14826372 3001:-0.02442833 3002:-0.066238821 3003:0.1369803 3004:0.030231681 3005:0.10262025 3006:0.1271483 3007:-0.17400977 3008:-0.0072889547 3009:0.093380228 3010:0.069181964 3011:0.024816101 3012:0.16222194 3013:-0.17615654 3014:-0.12175544 3015:0.12673849 3016:-0.038880289 3017:-0.13148311 3018:-0.042742725 3019:0.10041205 3020:0.12721777 3021:0.31581914 3022:-0.026130913 3023:0.011014608 3024:-0.15938076 3025:0.12044041 3026:0.10072116 3027:-0.10145456 3028:0.1753732 3029:-0.0030729014 3030:0.00053785404 3031:-0.0060671438 3032:0.047763024 3033:-0.071968511 3034:0.015168209 3035:-0.077937178 3036:-0.085655682 3037:-0.053188656 3038:-0.35252115 3039:0.083497822 3040:0.26423559 3041:0.21329385 3042:-0.0070501575 3043:0.12218562 3044:0.20088577 3045:0.075600728 3046:0.078115828 3047:0.10573053 3048:0.076263264 3049:0.0014415047 3050:-0.17736205 3051:0.17609581 3052:0.0051581757 3053:0.024770407 3054:-0.18241435 3055:-0.33523399 3056:-0.0049637835 3057:-0.022531504 3058:-0.043824151 3059:0.27957347 3060:-0.25465554 3061:0.13585781 3062:0.092530005 3063:0.045242526 3064:0.14302203 3065:-0.18016511 3066:0.0082597593 3067:-0.1722891 3068:-0.020501759 3069:0.050364994 3070:0.25577897 3071:0.065695748 3072:0.044883918 3073:0.0358615 3074:0.17449252 3075:0.061568905 3076:-0.059544351 3077:0.11050773 3078:-0.052559368 3079:0.039511483 3080:-0.13467979 3081:-0.10470242 3082:0.11797387 3083:-0.12971555 3084:-0.063077368 3085:0.12531282 3086:0.15127452 3087:0.12694538 3088:0.036922239 3089:-0.15147568 3090:0.0036018183 3091:-0.003286063 3092:0.16790186 3093:-0.30311909 3094:-0.18218152 3095:0.0033329614 3096:-0.019319247 3097:-0.18522592 3098:-0.15563604 3099:-0.0052916841 3100:-0.094420478 3101:0.061104774 3102:0.0033105535 3103:-0.12259457 3104:-0.068717159 3105:-0.062074061 3106:-0.079077139 3107:0.025587343 3108:-0.0030483161 3109:0.22909416 3110:0.075555138 3111:-0.12207998 3112:0.17094426 3113:0.03441361 3114:0.011668448 3115:0.18440773 3116:-0.0513735 3117:-0.046213474 3118:-0.14044306 3119:-0.033304621 3120:-0.15946978 3121:-0.11430878 3122:-0.10271668 3123:-0.025410309 3124:-0.056047462 3125:0.084206149 3126:0.12073408 3127:0.15876128 3128:-0.035466764 3129:-0.14897487 3130:0.028322928 3131:-0.039704502 3132:0.034336258 3133:-0.028732603 3134:0.052195828 3135:0.022860505 3136:0.24624442 3137:0.024840809 3138:-0.23934737 3139:0.076289766 3140:0.099491775 3141:0.18928899 3142:0.15408245 3143:0.10042865 3144:-0.25684753 3145:0.084938683 3146:-0.060450964 3147:-0.036216542 3148:-0.065167956 3149:-0.092860661 3150:-0.1783808 3151:0.19875315 3152:-0.15627149 3153:0.023908325 3154:0.12501921 3155:0.13159488 3156:-0.10068112 3157:0.15497565 3158:-0.19572733 3159:-0.16242211 3160:-0.098066658 3161:-0.220778 3162:0.12260224 3163:0.18228807 3164:0.077099979 3165:-0.075184003 3166:-0.31040195 3167:0.26175302 3168:-0.20053804 3169:-0.19135183 3170:-0.1455275 3171:-0.0092676459 3172:-0.10321015 3173:-0.085174739 3174:-0.041720212 3175:-0.18088362 3176:-0.16042322 3177:-0.088554092 3178:0.059731837 3179:-0.051822934 3180:-0.074695289 3181:-0.074813247 3182:-0.35197106 3183:0.052105285 3184:0.17191237 3185:-0.30918667 3186:-0.078421868 3187:-0.065631084 3188:-0.12473596 3189:0.30713612 3190:0.034169879 3191:0.061020661 3192:-0.010789414 3193:0.12120301 3194:-0.041500315 3195:-0.0567603 3196:-0.0078674406 3197:-0.24878919 3198:0.011345127 3199:-0.055613261 3200:-0.20975311 3201:-0.024467019 3202:-0.074010409 3203:-0.026448479 3204:0.10950232 3205:-0.069217898 3206:0.22262233 3207:0.048806004 3208:0.1207559 3209:-0.18530837 3210:0.2832672 3211:-0.21120155 3212:-0.154438 3213:-0.064759575 3214:0.2656891 3215:0.092827238 3216:0.046472155 3217:-0.040171679 3218:0.10447119 3219:0.12125829 3220:-0.099720635 3221:0.074945815 3222:-0.011483185 3223:0.092023566 3224:-0.11494775 3225:-0.0025711637 3226:0.037965823 3227:0.09166155 3228:0.017068066 3229:0.3187362 3230:-0.067810126 3231:-0.047411051 3232:-0.0074482989 3233:0.026312219 3234:0.11602391 3235:0.065385103 3236:0.036147311 3237:-0.19853082 3238:0.028633786 3239:0.041252267 3240:0.14428975 3241:0.10869613 3242:-0.0071554966 3243:0.031874094 3244:-0.18292286 3245:-0.14717387 3246:-0.28034925 3247:-0.10313562 3248:-0.02073691 3249:0.09889701 3250:0.01285815 3251:0.033207577 3252:0.23285538 3253:0.05215919 3254:0.16401254 3255:-0.058551464 3256:-0.043067496 3257:0.060426723 3258:0.11172498 3259:-0.1789228 3260:-0.086522982 3261:-0.07695847 3262:0.047606084 3263:0.10546926 3264:-0.0068780226 3265:0.019124426 3266:-0.086379364 3267:0.21746051 3268:0.097168982 3269:0.13008446 3270:-0.043751877 3271:-0.094141684 3272:-0.17030431 3273:0.035899337 3274:-0.057769477 3275:-0.033767499 3276:-0.075047925 3277:-0.052217208 3278:-0.045399647 3279:-0.029753979 3280:0.081101671 3281:0.14358726 3282:0.14313138 3283:0.1243276 3284:-0.096773989 3285:-0.030151052 3286:0.13102087 3287:-0.0040118974 3288:-0.11714655 3289:-0.12012415 3290:0.097165242 3291:0.001030864 3292:-0.10084819 3293:0.20292765 3294:-0.044494368 3295:0.12318329 3296:0.036359977 3297:-0.011127529 3298:0.03681919 3299:0.027577743 3300:0.10005101 3301:-0.083528817 3302:-0.1986087 3303:0.025401067 3304:-0.11172902 3305:0.071302004 3306:-0.031430297 3307:-0.014412964 3308:-0.082295947 3309:0.25453773 3310:-0.014484591 3311:0.0016434565 3312:-0.064225845 3313:0.022593101 3314:-0.076774105 3315:-0.084365621 3316:-0.13710408 3317:-0.031665992 3318:0.077681288 3319:0.089191258 3320:-0.063040413 3321:-0.052110843 3322:-0.16444993 3323:-0.068978436 3324:0.21103993 3325:-0.064700447 3326:0.099717893 3327:0.11365176 3328:-0.22874819 3329:0.01691586 3330:-0.024440801 3331:0.020023385 3332:-0.21144299 3333:0.16136697 3334:-0.077989109 3335:-0.16365315 3336:0.03468436 3337:0.079269409 3338:0.013749296 3339:-0.01293943 3340:-0.11014201 3341:0.088467978 3342:0.0049413037 3343:0.0038426348 3344:0.2916764 3345:-0.087698869 3346:0.072589718 3347:0.12370006 3348:0.024366094 3349:0.0033520011 3350:0.093468405 3351:-0.05758664 3352:0.043933537 3353:-0.13490902 3354:0.097679958 3355:-0.081220262 3356:0.20735191 3357:0.19169796 3358:0.088729225 3359:-0.13186912 3360:0.059711702 3361:-0.11387954 3362:0.13226974 3363:-0.24382946 3364:-0.35387757 3365:-0.12797573 3366:-0.00034972836 3367:-0.024629854 3368:0.11881401 3369:-0.069390252 3370:0.0079961084 3371:0.14401053 3372:-0.0017504713 3373:-0.038007274 3374:0.10418055 3375:-0.028920654 3376:0.36263275 3377:0.15140314 3378:0.045258727 3379:-0.083561532 3380:-0.2960299 3381:-0.1345918 3382:0.007079741 3383:0.083628759 3384:-0.048317816 3385:0.015920369 3386:-0.13597591 3387:0.045492258 3388:-0.13911051 3389:0.060286026 3390:-0.045873541 3391:0.090327315 3392:0.22603862 3393:0.0024247372 3394:0.041588821 3395:-0.099108741 3396:0.18386036 3397:0.19746834 3398:-0.048948433 3399:-0.095776625 3400:0.16820605 3401:-0.18066786 3402:0.094638959 3403:0.077981703 3404:0.019282088 3405:0.11886254 3406:-0.19406787 3407:-0.055273749 3408:0.053353105 3409:-0.096326627 3410:0.15743016 3411:-0.031270638 3412:0.15859342 3413:0.19689396 3414:-0.097812518 3415:-0.046261117 3416:-0.14508188 3417:-0.059032772 3418:0.035872359 3419:0.2571952 3420:-0.1023031 3421:0.0020567705 3422:-0.1200257 3423:-0.024205273 3424:-0.15988865 3425:0.0080048582 3426:-0.050131299 3427:0.12761651 3428:-0.034958232 3429:0.0037241094 3430:0.10903133 3431:0.080370776 3432:-0.064580597 3433:0.077162609 3434:-0.17474385 3435:-0.11006372 3436:0.19582988 3437:-0.042219099 3438:0.11635498 3439:0.10162204 3440:0.20610061 3441:0.21041581 3442:-0.099437118 3443:-0.031255521 3444:0.053776752 3445:0.041578371 3446:-0.014471707 3447:0.26754206 3448:-0.11909366 3449:0.12670411 3450:-0.12787525 3451:0.22677499 3452:0.07002829 3453:0.12960497 3454:-0.08273349 3455:0.061444663 3456:-0.21786934 3457:0.01886869 3458:0.074102521 3459:-0.040944897 3460:-0.081395797 3461:-0.065189086 3462:0.19248815 3463:0.044075541 3464:-0.22513562 3465:-0.018848216 3466:-0.13088158 3467:0.11182614 3468:-0.096147619 3469:0.13907474 3470:-0.0029151086 3471:0.095936477 3472:0.030583527 3473:-0.10101873 3474:-0.077252068 3475:-0.022001149 3476:0.038604952 3477:-0.25099766 3478:-0.1396395 3479:-0.14525284 3480:-0.015296523 3481:-0.012633335 3482:0.00037303552 3483:0.0015472715 3484:0.16412276 3485:0.42345074 3486:0.0089657875 3487:-0.097240381 3488:-0.047110304 3489:-0.16199443 3490:0.019722214 3491:0.25377154 3492:-0.14060913 3493:0.035351772 3494:-0.074000962 3495:0.087140292 3496:-0.19057325 3497:0.0068844198 3498:-0.080135666 3499:0.11827401 3500:-0.15212539 3501:0.0096045658 3502:0.056053806 3503:-0.051641837 3504:-0.13754456 3505:-0.064433314 3506:-0.029461255 3507:-0.011523568 3508:0.16051768 3509:0.0075551369 3510:0.039390348 3511:-0.17365485 3512:0.066227943 3513:0.020952566 3514:-0.040201016 3515:-0.15132949 3516:-0.38095075 3517:0.030557489 3518:-0.19683059 3519:0.020354802 3520:-0.17577955 3521:-0.10063525 3522:0.0034578857 3523:0.016026264 3524:-0.32906988 3525:-0.023552503 3526:0.10759567 3527:0.066700369 3528:0.23317689 3529:-0.12947719 3530:-0.085528761 3531:-0.13348837 3532:0.067673475 3533:0.26496789 3534:0.011075702 3535:0.072198749 3536:-0.078979157 3537:0.10530445 3538:-0.26690251 3539:0.023651667 3540:0.01268269 3541:-0.056153849 3542:-0.063856378 3543:-0.026997391 3544:-0.083717674 3545:0.11863961 3546:-0.3166768 3547:-0.054209106 3548:0.11817593 3549:0.014530874 3550:-0.046013094 3551:0.033708755 3552:-0.22386588 3553:0.049392659 3554:-0.22318739 3555:0.19496399 3556:0.202995 3557:0.12982699 3558:0.022502748 3559:0.047287654 3560:-0.042382866 3561:0.15344402 3562:-0.004701816 3563:-0.022995081 3564:-0.21143097 3565:0.10455001 3566:0.18515213 3567:0.0693845 3568:0.099087827 3569:-0.14614089 3570:-0.059758674 3571:0.15250842 3572:0.024445659 3573:-0.011756929 3574:-0.21884371 3575:0.037198372 3576:-0.11224083 3577:-0.15654506 3578:-0.047698341 3579:-0.082495973 3580:-0.32819468 3581:0.16628058 3582:0.12947065 3583:-0.091345668 3584:-0.0015832034 3585:-0.16310023 3586:0.024378007 3587:0.0025404908 3588:-0.047689199 3589:0.11822744 3590:0.23139511 3591:0.11911886 3592:0.015196979 3593:-0.0032657958 3594:0.067983158 3595:-0.20919907 3596:0.21318251 3597:-0.19475457 3598:0.037750799 3599:-0.00535892 3600:-0.15899141 3601:0.11447527 3602:-0.048777856 3603:-0.0021457425 3604:0.10511716 3605:0.11634544 3606:0.14166901 3607:0.013326032 3608:-0.15270828 3609:-0.16303514 3610:-0.1362876 3611:0.084759861 3612:-0.076461658 3613:-0.079008855 3614:-0.024202969 3615:0.1317552 3616:-0.0062987776 3617:-0.076102071 3618:-0.069090061 3619:0.050927442 3620:0.010028062 3621:0.059379112 3622:-0.14137669 3623:-0.099394336 3624:0.075894468 3625:0.25350204 3626:0.14581358 3627:-0.16098997 3628:-0.20416875 3629:-0.17294487 3630:0.084806204 3631:0.17110676 3632:-0.10995441 3633:-0.02069954 3634:0.16812778 3635:0.089562766 3636:0.070739128 3637:0.11822347 3638:-0.029370867 3639:0.076530956 3640:-0.030828824 3641:-0.084244549 3642:0.015725657 3643:0.18821187 3644:0.088065632 3645:-0.066919766 3646:-0.15778643 3647:0.03569952 3648:-0.10615326 3649:-0.025720725 3650:0.23074682 3651:-0.06725765 3652:-0.036457743 3653:-0.010019178 3654:0.1420847 3655:0.058296874 3656:-0.0047805738 3657:0.048329577 3658:-0.078143768 3659:0.090467744 3660:-0.13624448 3661:0.20182121 3662:0.19526921 3663:-0.14682359 3664:-0.021824067 3665:-0.10304974 3666:-0.016130375 3667:-0.048391998 3668:0.20497032 3669:0.0075345384 3670:-0.082549304 3671:0.028631551 3672:0.17104326 3673:0.15515281 3674:-0.057320185 3675:0.20027579 3676:0.018109649 3677:-0.14778757 3678:-0.01294385 3679:-0.10591309 3680:0.025429219 3681:-0.2425635 3682:-0.088934131 3683:-0.041510377 3684:0.028066767 3685:0.24536045 3686:0.078574628 3687:0.007089152 3688:0.027044408 3689:0.035851859 3690:-0.043388106 3691:-0.073657274 3692:-0.020619243 3693:0.1382542 3694:0.0489178 3695:0.065284722 3696:-0.055949505 3697:-0.024021359 3698:-0.0092935832 3699:-0.17771068 3700:0.012040683 3701:-0.244186 3702:-0.083251007 3703:0.017522354 3704:0.24507587 3705:-0.066286013 3706:0.022307798 3707:-0.10597614 3708:-0.11767635 3709:0.098450407 3710:0.012505767 3711:-0.080862828 3712:0.058644652 3713:0.00069566839 3714:-0.27594867 3715:0.073689848 3716:-0.11298313 3717:-0.096532933 3718:0.17918019 3719:-0.16411716 3720:-0.2752707 3721:-0.12303419 3722:0.16501258 3723:0.022157349 3724:-0.13203306 3725:-0.12303826 3726:0.033605155 3727:0.1801502 3728:0.099925905 3729:-0.15403356 3730:0.27584589 3731:0.067072511 3732:-0.1101208 3733:0.20899947 3734:-0.09277451 3735:-0.025247086 3736:0.0010996038 3737:-0.10675473 3738:0.1119059 3739:0.046405844 3740:0.22039111 3741:0.046439782 3742:0.040367976 3743:-0.095127165 3744:-0.033150859 3745:-0.26223513 3746:0.053585835 3747:0.17964441 3748:0.073498704 3749:0.10036952 3750:-0.021127792 3751:-0.25633273 3752:-0.020202927 3753:0.20250392 3754:-0.081681758 3755:0.32830316 3756:-0.021314828 3757:0.058891777 3758:-0.14156941 3759:-0.069854774 3760:0.071431719 3761:0.098071009 3762:0.044768687 3763:0.017904129 3764:-0.17701367 3765:-0.092146017 3766:-0.018953262 3767:-0.012351632 3768:-0.21327516 3769:0.067650586 3770:0.039753746 3771:-0.018101422 3772:0.25176606 3773:-0.23513812 3774:0.028009556 3775:0.038519584 3776:-0.026576027 3777:0.077598788 3778:-0.014374564 3779:0.0079254089 3780:0.0022786956 3781:0.18481682 3782:-0.091657765 3783:0.078665309 3784:-0.052780028 3785:-0.037999127 3786:0.12524915 3787:-0.16897731 3788:-0.079292081 3789:-0.10315005 3790:0.07767956 3791:0.0057803765 3792:0.020199787 3793:0.054502565 3794:0.043031782 3795:0.0033071041 3796:-0.063362584 3797:-0.19532122 3798:0.1600569 3799:-0.02758445 3800:0.11005608 3801:0.060130358 3802:0.25137526 3803:-0.14819831 3804:-0.021931356 3805:0.095686875 3806:0.0503118 3807:-0.015373623 3808:-0.078614533 3809:0.20359789 3810:0.048880093 3811:-0.29278794 3812:0.034993958 3813:-0.019281654 3814:-0.158306 3815:-0.13470846 3816:0.050446671 3817:0.013636681 3818:0.068273164 3819:0.047750652 3820:-0.059283659 3821:0.0040917187 3822:0.053686086 3823:-0.14214522 3824:0.17944217 3825:-0.20199896 3826:-0.067520738 3827:-0.053498279 3828:-0.24563439 3829:-0.0085884202 3830:-0.052045316 3831:0.025439138 3832:-0.16068685 3833:0.048318502 3834:-0.16752076 3835:-0.035070248 3836:-0.14594273 3837:-0.01574827 3838:0.13331223 3839:-0.14601906 3840:-0.17924377 3841:-0.067105979 3842:-0.026103074 3843:-0.11626976 3844:-0.16823331 3845:-0.06806913 3846:-0.22919047 3847:-0.084974512 3848:0.12073091 3849:-0.060167037 3850:-0.1313671 3851:-0.14920516 3852:0.21622829 3853:-0.24483581 3854:0.030903975 3855:-0.058732517 3856:0.060602739 3857:-0.074250609 3858:-0.033846091 3859:-0.0070500025 3860:-0.0084259259 3861:0.06617485 3862:0.044558454 3863:-0.080759041 3864:0.050985862 3865:0.0394613 3866:-0.22035035 3867:-0.0029216239 3868:-0.1695599 3869:0.0427651 3870:0.015788285 3871:-0.080825366 3872:-0.2362553 3873:-0.087974541 3874:-0.14320655 3875:-0.26814169 3876:-0.11097343 3877:-0.0051535987 3878:0.23695007 3879:-0.044302102 3880:-0.14751613 3881:0.029004173 3882:-0.16405945 3883:0.14311488 3884:0.14795247 3885:-0.017819423 3886:-0.018722739 3887:-0.090164252 3888:0.13042766 3889:-0.22578365 3890:0.16059461 3891:-0.089993469 3892:0.029229486 3893:-0.049985949 3894:0.090046175 3895:0.11193787 3896:-0.020351509 3897:-0.12079854 3898:-0.00028012108 3899:-0.15532446 3900:-0.062901221 3901:0.066142648 3902:0.069231167 3903:0.16132578 3904:-0.077115908 3905:-0.23703457 3906:0.039256386 3907:0.1903244 3908:0.13957645 3909:0.10890903 3910:-0.040431533 3911:-0.21470037 3912:-0.059110202 3913:0.18053298 3914:-0.0081957718 3915:-0.044520844 3916:-0.030589813 3917:0.1489629 3918:-0.18798222 3919:-0.10836537 3920:-0.13296625 3921:0.22235484 3922:-0.14651078 3923:0.10045826 3924:0.032541629 3925:-0.079018094 3926:0.0017782747 3927:-0.13653883 3928:-0.065524139 3929:0.21245593 3930:0.091850035 3931:-0.025647812 3932:0.15171814 3933:0.1820561 3934:-0.072657168 3935:0.050716709 3936:-0.054462984 3937:-0.11886115 3938:-0.026167959 3939:0.0069969422 3940:-0.00035066501 3941:0.0015416627 3942:0.022085661 3943:0.03532685 3944:0.084039964 3945:-0.060784016 3946:-0.033685617 3947:0.013284714 3948:0.13420491 3949:-0.088952295 3950:-0.038772933 3951:-0.031929735 3952:0.0088477843 3953:-0.40163246 3954:0.23199588 3955:0.015819134 3956:0.060724456 3957:-0.065969273 3958:-0.036435049 3959:-0.019585552 3960:0.13801366 3961:-0.12097491 3962:-0.2145941 3963:0.069837034 3964:0.089259975 3965:-0.21191458 3966:0.14429629 3967:0.069659531 3968:-0.083864264 3969:-0.19177049 3970:-0.015001374 3971:0.032585025 3972:-0.05497583 3973:0.09696988 3974:0.056307558 3975:-0.1422971 3976:-0.0065282658 3977:0.011578294 3978:-0.15267904 3979:-0.066851713 3980:0.028040798 3981:0.046608113 3982:0.011227753 3983:-0.0053891493 3984:-0.0913473 3985:-0.15395713 3986:-0.093416169 3987:-0.0018591533 3988:0.069982648 3989:-0.13782644 3990:0.15492614 3991:0.10117715 3992:-0.065423697 3993:0.078448273 3994:0.16549087 3995:0.04810429 3996:-0.29693085 3997:0.012921994 3998:-0.0088789128 3999:-0.07119979 4000:0.10598535 4001:-0.13951024 4002:0.18300408 4003:0.069280595 4004:-0.094240367 4005:0.097049594 4006:0.0072405576 4007:-0.10493094 4008:0.042762037 4009:-0.040799327 4010:0.13005847 4011:0.1126036 4012:-0.13642481 4013:-0.04270751 4014:0.27410942 4015:0.013914466 4016:-0.012458135 4017:-0.081390865 4018:-0.14431645 4019:0.0081716515 4020:0.093949184 4021:-0.099328451 4022:0.00022966637 4023:-0.035022192 4024:0.32469288 4025:0.081376947 4026:0.16156602 4027:0.0050557251 4028:0.046590958 4029:0.1261991 4030:-0.15430756 4031:0.079623789 4032:-0.03939151 4033:0.039681759 4034:-0.17776343 4035:-0.00039588264 4036:0.0037375488 4037:0.017935919 4038:-0.18149136 4039:0.088620998 4040:0.078477643 4041:0.071621276 4042:-0.14172587 4043:-0.082334101 4044:0.12428161 4045:-0.027620809 4046:0.036387336 4047:-0.096904062 4048:-0.055580672 4049:0.070236973 4050:0.07942459 4051:0.10735229 4052:-0.12913041 4053:-0.085133441 4054:0.099892147 4055:-0.1212832 4056:0.18628186 4057:-0.13794576 4058:0.02017442 4059:0.12422284 4060:0.095042452 4061:0.11004516 4062:0.079830006 4063:-0.055849053 4064:0.11846773 4065:-0.16291912 4066:-0.038689934 4067:-0.25719705 4068:0.015537147 4069:-0.013597617 4070:0.1545282 4071:-0.068850107 4072:-0.059447899 4073:0.14126639 4074:0.082005225 4075:0.010048838 4076:0.056548577 4077:0.1734288 4078:0.052392777 4079:-0.019071987 4080:0.020981476 4081:0.12060207 4082:0.011524186 4083:-0.16374473 4084:-0.16394103 4085:0.057741132 4086:-0.079694167 4087:-0.021097112 4088:-0.12997642 4089:-0.28435382 4090:0.10500818 4091:-0.084067062 4092:-0.018922845 4093:-0.094715543 4094:0.15033388 4095:0.13919468 4096:-0.00065046269 4097:-0.063694753 4098:-0.16441381 4099:0.11417782 4100:0.002008066 4101:-0.14636783 4102:-0.019271215 4103:-0.014019874 4104:-0.11020562 4105:0.13292952 4106:0.03284644 4107:0.030194459 4108:0.075525261 4109:-0.049903058 4110:-0.046016119 4111:-0.3010509 4112:-0.150462 4113:0.22695787 4114:0.061845154 4115:-0.028098878 4116:0.12750223 4117:0.018320832 4118:-0.062877648 4119:-0.086711258 4120:-0.054728255 4121:0.10555159 4122:0.0045757396 4123:-0.14645225 4124:-0.18207252 4125:0.13103759 4126:0.053513236 4127:0.12913117 4128:0.096850216 4129:-0.073966563 4130:-0.081755348 4131:-0.16745526 4132:-0.064238153 4133:0.10438227 4134:0.073901385 4135:-0.22944008 4136:0.087516516 4137:-0.10885511 4138:0.22421159 4139:0.088209838 4140:0.092656411 4141:0.11214761 4142:-0.045219291 4143:0.0096015111 4144:-0.080121569 4145:0.028595731 4146:-0.062483262 4147:-0.032763779 4148:0.25827259 4149:0.13403642 4150:0.090262994 4151:0.088002458 4152:-0.052485157 4153:-0.18984221 4154:-0.10383275 4155:0.22243673 4156:0.28263596 4157:0.017342467 4158:0.062981561 4159:0.10302273 4160:0.23367436 4161:0.10671005 4162:-0.1568376 4163:-0.010432445 4164:0.003326748 4165:-0.15175736 4166:-0.026548129 4167:-0.13684636 4168:-0.25936612 4169:0.19724381 4170:0.011241813 4171:-0.17797297 4172:-0.027772596 4173:-0.15370031 4174:0.15993929 4175:0.07812231 4176:-0.066429302 4177:0.086975813 4178:0.13501333 4179:0.21162555 4180:-0.024106121 4181:0.048778582 4182:-0.034604698 4183:-0.07231161 4184:0.019075979 4185:0.045714393 4186:0.16922629 4187:-0.029304661 4188:0.005215684 4189:-0.010205035 4190:0.15326953 4191:-0.15677121 4192:-0.20015903 4193:0.01180597 4194:0.093795277 4195:0.043439776 4196:-0.09210673 4197:-0.17060757 4198:0.068148531 4199:0.089782648 4200:-0.14730473 4201:0.0030491506 4202:-0.011944486 4203:0.23447897 4204:-0.053458951 4205:-0.0038991023 4206:0.23142168 4207:-0.11041803 4208:0.015584101 4209:-0.053387035 4210:0.040869094 4211:-0.069814295 4212:0.12300532 4213:0.022218965 4214:-0.035685357 4215:-0.027059447 4216:-0.046013091 4217:0.0033897855 4218:-0.083058469 4219:-0.11637676 4220:-0.043892056 4221:0.15732037 4222:-0.08474908 4223:-0.18236491 4224:0.11309204 4225:0.20560899 4226:0.10426267 4227:-0.15300824 4228:-0.10773448 4229:0.0073223691 4230:-0.25724044 4231:0.011758757 4232:0.0949613 4233:0.077913366 4234:0.054607548 4235:0.031536423 4236:0.0062674396 4237:0.11750418 4238:0.17759489 4239:0.00071605988 4240:-0.028015224 4241:0.14517833 4242:-0.16916974 4243:-0.091196299 4244:-0.082058556 4245:0.069698803 4246:0.17262289 4247:-0.057808354 4248:0.15184292 4249:0.074006088 4250:-0.049868163 4251:0.05844539 4252:0.063350163 4253:-0.13444643 4254:0.16011116 4255:0.13467097 4256:-0.11891428 4257:0.067939728 4258:0.0943712 4259:-0.0028904621 4260:-0.23351167 4261:-0.17422654 4262:-0.079754412 4263:0.18910173 4264:0.10803315 4265:-0.1955943 4266:0.034844466 4267:0.017581722 4268:-0.21708128 4269:0.22337466 4270:-0.26126161 4271:-0.0036859999 4272:-0.119339 4273:-0.087671287 4274:0.13195968 4275:-0.18067943 4276:0.078226916 4277:0.21143852 4278:-0.011468183 4279:-0.1403441 4280:-0.29570773 4281:0.23676206 4282:0.047201097 4283:-0.080402955 4284:0.0091597615 4285:0.19545418 4286:-0.21643646 4287:-0.22140902 4288:0.061223209 4289:0.16607296 4290:0.0037425298 4291:0.10053218 4292:-0.18149453 4293:0.10055444 4294:0.1446875 4295:-0.090793334 4296:0.0089529641 4297:0.00033551586 4298:-0.22429445 4299:-0.11080898 4300:0.058993608 4301:0.089943141 4302:-0.036774747 4303:0.067937411 4304:-0.00083376031 4305:0.061175685 4306:0.061895117 4307:0.068117827 4308:-0.072400965 4309:0.025365572 4310:0.0362642 4311:0.12390185 4312:-0.02548201 4313:0.079976462 4314:0.11685482 4315:-0.10594557 4316:-0.10868586 4317:-0.0103364 4318:0.16962104 4319:-0.2164562 4320:0.11640569 4321:-0.08466021 4322:-0.1336841 4323:-0.29561996 4324:0.018138593 4325:0.2027979 4326:-0.045140188 4327:0.05673575 4328:-0.24725716 4329:-0.037538569 4330:0.087756291 4331:-0.033200447 4332:0.017098522 4333:0.18354286 4334:0.084497936 4335:-0.11280802 4336:-0.027077412 4337:0.17579696 4338:-0.11563943 4339:0.019815776 4340:-0.17965671 4341:-0.27036217 4342:-0.032849617 4343:-0.090582043 4344:0.059085201 4345:0.0094914092 4346:0.12971058 4347:-0.26554307 4348:0.025356758 4349:0.13412474 4350:0.079355642 4351:0.023178931 4352:0.087636486 4353:0.13400075 4354:0.051699374 4355:0.048780713 4356:-0.031439982 4357:-0.059447423 4358:0.23330732 4359:-0.24886402 4360:-0.088160574 4361:0.011335272 4362:0.014947219 4363:0.24192475 4364:0.097576715 4365:-0.048595056 4366:0.11090218 4367:0.081516258 4368:-0.13182047 4369:0.097068086 4370:0.11756617 4371:0.016047472 4372:-0.1282739 4373:0.12832259 4374:-0.097401768 4375:-0.090527155 4376:-0.052475434 4377:-0.023805451 4378:-0.009033056 4379:-0.13375129 4380:-0.16564451 4381:0.016026208 4382:-0.077425174 4383:-0.071343862 4384:-0.040602792 4385:0.054315448 4386:-0.10510068 4387:-0.28272134 4388:-0.11875957 4389:-0.26433867 4390:0.0068300012 4391:0.11429341 4392:0.084260955 4393:-0.22361119 4394:-0.065338552 4395:-0.058950927 4396:-0.010903612 4397:-0.033160236 4398:-0.2113103 4399:0.12192626 4400:-0.16775373 4401:0.12766629 4402:-0.20285195 4403:-0.025904855 4404:-0.069852121 4405:-0.25197965 4406:-0.011830893 4407:-0.069608875 4408:0.067389004 4409:0.059310239 4410:0.22302213 4411:-0.032839116 4412:-0.034333143 4413:-0.084218815 4414:-0.027752979 4415:-0.11760287 4416:-0.0237293 4417:0.073551148 4418:-0.059385721 4419:-0.02469535 4420:0.11913444 4421:0.075364925 4422:-0.065263122 4423:-0.11286887 4424:-0.060347527 4425:-0.018937441 4426:0.01406752 4427:-0.22679777 4428:0.068755962 4429:0.15619379 4430:-0.18305612 4431:-0.019404309 4432:-0.036469053 4433:0.090151347 4434:-0.041196477 4435:-0.15407522 4436:0.045585893 4437:-0.23155901 4438:0.1104224 4439:-0.077273093 4440:-0.21542288 4441:0.034511991 4442:-0.058127534 4443:0.06577199 4444:0.36340025 4445:0.084017023 4446:-0.018011808 4447:-0.086260222 4448:-0.16363657 4449:0.051207367 4450:-0.07855767 4451:-0.23897985 4452:0.041185748 4453:-0.023918811 4454:-0.10589275 4455:-0.12104559 4456:0.082153454 4457:0.10902713 4458:0.048903763 4459:0.025048109 4460:0.14870319 4461:0.19023617 4462:-0.19355693 4463:0.1491584 4464:0.031438883 4465:-0.043648034 4466:-0.10942601 4467:0.02101074 4468:0.064861678 4469:0.020598879 4470:-0.079878099 4471:0.018909579 4472:-0.05651895 4473:0.088710442 4474:-0.05212681 4475:0.003879108 4476:-0.065092228 4477:0.18296593 4478:0.16422924 4479:-0.053570572 4480:-0.036018204 4481:-0.0465861 4482:-0.13611829 4483:-0.080897532 4484:0.01708415 4485:0.10632177 4486:0.090200029 4487:0.24894094 4488:0.013754413 4489:0.12774718 4490:0.01305387 4491:-0.0014891551 4492:-0.16867964 4493:0.088091142 4494:-0.1489362 4495:0.1468737 4496:-0.11164775 4497:-0.12051269 4498:-0.10823303 4499:0.087796606 4500:0.11679316 4501:0.041471448 4502:-0.059029579 4503:0.027622076 4504:-0.043535009 4505:-0.21562418 4506:-0.10136022 4507:-0.097672313 4508:-0.026608696 4509:0.32220173 4510:-0.010870191 4511:-0.24573189 4512:-0.094795898 4513:-0.083896182 4514:0.032170087 4515:0.22831851 4516:-0.073272757 4517:0.071524359 4518:-0.10187194 4519:-0.21389799 4520:0.17658122 4521:-0.037668023 4522:0.15132162 4523:0.07821697 4524:0.062578462 4525:0.044264112 4526:0.044972721 4527:-0.049765181 4528:-0.25633997 4529:0.18658139 4530:-0.036141481 4531:-0.037516344 4532:-0.23645338 4533:-0.11103795 4534:-0.1078103 4535:0.23999242 4536:0.10080506 4537:0.067350984 4538:-0.07334806 4539:0.39029688 4540:0.0086133508 4541:-0.11055527 4542:-0.026669832 4543:0.078261986 4544:-0.0014259132 4545:0.010450213 4546:-0.091907911 4547:0.10111678 4548:0.03850729 4549:-0.20777825 4550:0.019703297 4551:-0.010664052 4552:0.098232038 4553:0.041755252 4554:-0.062124021 4555:0.023237014 4556:0.014321138 4557:0.030143918 4558:-0.017074164 4559:-0.081489623 4560:-0.094864883 4561:-0.0027090362 4562:0.13531318 4563:-0.076019555 4564:-0.1873247 4565:-0.10483753 4566:0.12576525 4567:-0.12746905 4568:0.14999664 4569:0.17991716 4570:-0.045075003 4571:-0.073024303 4572:0.035111334 4573:0.093462683 4574:0.044805892 4575:0.022477254 4576:-0.10471269 4577:-0.11887157 4578:0.070917517 4579:-0.089093365 4580:0.19110641 4581:0.084301583 4582:-0.16241759 4583:-0.07450518 4584:-0.0010056704 4585:0.048838399 4586:-0.080800585 4587:0.14253961 4588:0.058535632 4589:0.14055911 4590:0.084597073 4591:-0.25905669 4592:0.13998945 4593:0.056698039 4594:0.091731891 4595:0.10108876 4596:0.13691698 4597:-0.11524116 4598:0.13272938 4599:0.020102499 4600:-0.10212175 4601:-0.079027452 4602:-0.10340413 4603:-0.15297063 4604:-0.096883461 4605:-0.071591169 4606:-0.063280933 4607:0.023434306 4608:-0.093171105 4609:-0.1029522 4610:0.24344736 4611:0.20392385 4612:0.014152009 4613:0.0026527226 4614:0.022107257 4615:0.15191923 4616:0.028947264 4617:-0.027413048 4618:-0.080406316 4619:-0.0024480331 4620:-0.053481285 4621:0.15892582 4622:-0.067274056 4623:0.20079254 4624:-0.035304472 4625:-0.020350657 4626:0.25757891 4627:0.10669212 4628:-0.0064062905 4629:-0.048311479 4630:-0.13646831 4631:0.24554642 4632:-0.018326988 4633:0.071391396 4634:-0.097708791 4635:0.22594786 4636:0.050343975 4637:0.23200954 4638:0.15533312 4639:-0.18087162 4640:0.21198396 4641:0.038890999 4642:0.040346336 4643:0.24897951 4644:-0.062082972 4645:-0.039433632 4646:-0.052355107 4647:0.0033517596 4648:0.17001756 4649:0.074952781 4650:0.13049671 4651:0.1426672 4652:-0.07478328 4653:-0.10112661 4654:-0.072634965 4655:0.092991777 4656:0.026458248 4657:0.04417241 4658:-0.053574897 4659:0.14306802 4660:0.081580549 4661:-0.17788339 4662:0.09223973 4663:0.0011749127 4664:0.038790334 4665:0.042052004 4666:-0.14974239 4667:0.10232393 4668:-0.010479271 4669:-0.22590142 4670:0.097865522 4671:0.0091182431 4672:0.26453963 4673:0.015864188 4674:-0.012215555 4675:-0.14049496 4676:0.095473088 4677:-0.11761796 4678:0.080536611 4679:-0.11675926 4680:-0.030404862 4681:0.0076191961 4682:-0.10294432 4683:0.11181965 4684:0.020395173 4685:0.067581736 4686:0.072780974 4687:-0.042580631 4688:0.045510482 4689:-0.023095086 4690:0.085669577 4691:-0.10119522 4692:0.064792298 4693:-0.15395816 4694:0.058041278 4695:-0.092794098 4696:0.087136783 4697:0.036238745 4698:-0.11210571 4699:-0.030567044 4700:-0.12423605 4701:0.18419455 4702:-0.28629223 4703:-0.01082411 4704:0.0033704236 4705:-0.16353685 4706:-0.23573448 4707:0.015280588 4708:0.041311022 4709:-0.045268521 4710:0.029772166 4711:0.066066407 4712:-0.14599594 4713:-0.17505652 4714:0.067060776 4715:0.038124561 4716:-0.064465106 4717:0.039954934 4718:-0.050602879 4719:0.050497741 4720:0.31072438 4721:0.063125163 4722:-0.091444522 4723:0.11597814 4724:0.054172467 4725:0.0073388643 4726:0.21142463 4727:-0.06799262 4728:0.098497845 4729:0.051314216 4730:-0.0092203366 4731:-0.0021089951 4732:0.14442585 4733:0.067927442 4734:-0.068022996 4735:0.078481071 4736:0.1030021 4737:-0.032803193 4738:-0.00086940982 4739:0.15436573 4740:0.090756804 4741:0.05374594 4742:0.10998978 4743:-0.22656985 4744:-0.10636218 4745:-0.16913955 4746:0.00077633531 4747:-0.0069296523 4748:0.064571895 4749:-0.14446309 4750:-0.17747727 4751:0.029067328 4752:-0.053087473 4753:0.036525488 4754:-0.032264899 4755:-0.011588422 4756:-0.014566303 4757:-0.023741173 4758:-0.19688123 4759:-0.010239945 4760:0.13686524 4761:0.13309024 4762:0.085534528 4763:-0.13384475 4764:0.10012943 4765:-0.093375407 4766:0.092815921 4767:0.033137728 4768:-0.0081259105 4769:-0.059342586 4770:-0.19351117 4771:-0.21413042 4772:-0.20215942 4773:0.087717898 4774:0.020820949 4775:-0.13541092 4776:0.073056169 4777:-0.035523839 4778:-0.23030269 4779:0.092898935 4780:-0.097165644 4781:0.043598399 4782:0.11210358 4783:0.059095487 4784:0.0060751969 4785:0.006844745 4786:0.13234384 4787:0.22606122 4788:0.029637756 4789:6.0831484e-05 4790:-0.093850687 4791:0.18529098 4792:-0.0074984469 4793:0.1101609 4794:-0.02912705 4795:0.062686183 4796:-0.13093045 4797:0.027877461 4798:-0.044878736 4799:-0.11037885 4800:-0.20082951 4801:-0.18289687 4802:-0.095328599 4803:-0.11910865 4804:-0.16101168 4805:0.12405195 4806:0.18307389 4807:0.066579878 4808:0.095461458 4809:0.022754243 4810:-0.24802771 4811:-0.035474624 4812:-0.23297586 4813:-0.026831953 4814:0.021147151 4815:0.11332706 4816:-0.086663872 4817:0.081581749 4818:0.10755219 4819:-0.1476505 4820:0.093069412 4821:0.11756156 4822:-0.028503451 4823:-0.11721498 4824:-0.12595771 4825:0.0067610224 4826:-0.024417337 4827:-0.11257611 4828:0.33603618 4829:-0.087939441 4830:0.16351083 4831:-0.11920197 4832:-0.018085666 4833:0.081232481 4834:0.040860303 4835:0.044443659 4836:-0.051948089 4837:-0.2508496 4838:0.0771043 4839:-0.13046038 4840:-0.0087941708 4841:-0.054020163 4842:0.086580671 4843:0.068864457 4844:-0.038684364 4845:-0.098490119 4846:-0.095242687 4847:0.21868739 4848:-0.1298641 4849:0.25803494 4850:0.023961656 4851:-0.024074269 4852:-0.023842717 4853:-0.0052676369 4854:0.18213977 4855:0.091253497 4856:-0.093453951 4857:-0.044651844 4858:-0.15493946 4859:0.027761787 4860:0.085575335 4861:0.18770577 4862:-0.033827178 4863:-0.019974608 4864:0.018713238 4865:-0.010491858 4866:-0.01509093 4867:0.013357813 4868:0.06216611 4869:-0.017656753 4870:-0.11186562 4871:-0.10383824 4872:-0.0050682016 4873:-0.02947849 4874:-0.043836955 4875:0.026153393 4876:0.037907612 4877:0.15931885 4878:0.17884511 4879:-0.12695792 4880:0.25932047 4881:0.038191471 4882:0.1680136 4883:0.24981256 4884:-0.035458837 4885:-0.24167816 4886:0.040111519 4887:-0.12420793 4888:-0.16027261 4889:-0.10315012 4890:-0.10191006 4891:0.067454353 4892:-0.18965569 4893:0.17885688 4894:-0.16029556 4895:0.15814874 4896:0.22464922 4897:-0.0082849963 4898:0.073470116 4899:-0.13300762 4900:0.026516225 4901:0.0050688372 4902:0.10068911 4903:0.01934761 4904:0.14775786 4905:0.040338881 4906:0.016933532 4907:0.25367999 4908:0.10368402 4909:-0.12580097 4910:-0.16171595 4911:0.068665057 4912:-0.098007821 4913:0.0070293332 4914:0.016418319 4915:0.044412781 4916:0.10646161 4917:-0.037026964 4918:-0.037229843 4919:0.10035929 4920:-0.00639633 4921:0.1672318 4922:0.016480273 4923:-0.17787606 4924:0.11910732 4925:-0.18523669 4926:0.18741985 4927:0.074638397 4928:0.042089816 4929:-0.10366248 4930:0.015729943 4931:0.33657703 4932:0.13127536 4933:-0.13999161 4934:0.057739731 4935:0.14930736 4936:0.026362812 4937:0.084569111 4938:0.018840458 4939:-0.13702145 4940:0.094367161 4941:0.11577807 4942:0.004053866 4943:0.11482681 4944:0.09217117 4945:0.0076707299 4946:-0.0017595034 4947:0.40101674 4948:0.20758611 4949:-0.051784188 4950:0.054990511 4951:0.13241841 4952:-0.017151086 4953:-0.17032465 4954:-0.043777946 4955:-0.29612756 4956:0.19176275 4957:-0.037621014 4958:-0.038965084 4959:0.025735039 4960:0.022377817 4961:-0.033447865 4962:0.099970497 4963:-0.31534541 4964:-0.0570352 4965:-0.079206407 4966:-0.23514426 4967:0.25284192 4968:-0.040765937 4969:0.084057108 4970:-0.10800467 4971:-0.018186813 4972:0.030021155 4973:-0.081310116 4974:0.067498446 4975:-0.012251057 4976:0.020187931 4977:-0.01598477 4978:-0.2196272 4979:0.010862138 4980:-0.012153784 4981:0.029729951 4982:0.10722136 4983:-0.14041211 4984:0.16673692 4985:0.0066017862 4986:0.042286932 4987:0.094752565 4988:0.21767963 4989:-0.037576128 4990:0.23260508 4991:0.23315878 4992:-0.076807238 4993:0.08110743 4994:0.037975177 4995:-0.22736427 4996:0.023652518 4997:-0.020916656 4998:0.13655703 4999:0.10255673 5000:0.001262374 5001:-0.43170276 5002:0.028572069 5003:-0.10213857 5004:0.12096414 5005:0.048609883 5006:-0.061536752 5007:-0.097018644 5008:-0.048732288 5009:-0.08446718 5010:-0.0053466628 5011:-0.050370108 5012:0.25336546 5013:-0.1882993 5014:0.23757 5015:0.0045190193 5016:-0.16059224 5017:-0.0065269959 5018:-0.020230569 5019:-0.04375618 5020:-0.13628067 5021:-0.20155646 5022:0.0099627003 5023:-0.063892022 5024:-0.10584394 5025:-0.042289533 5026:0.0095661758 5027:0.05224866 5028:0.012272608 5029:0.028212264 5030:-0.0042132284 5031:-0.20834827 5032:-0.056210235 5033:0.048836015 5034:-0.028007388 5035:0.073696263 5036:0.12297752 5037:-0.082848489 5038:-0.038421977 5039:-0.083030321 5040:-0.033241607 5041:-0.17480008 5042:0.020415276 5043:0.00019840754 5044:0.15622926 5045:-0.024975473 5046:-0.12148978 5047:-0.0017465535 5048:0.11706589 5049:-0.15711267 5050:0.11334428 5051:0.10605285 5052:-0.012056796 5053:-0.14700462 5054:-0.14473666 5055:0.10946099 5056:0.025798829 5057:0.076060519 5058:0.097542748 5059:-0.084720314 5060:0.011112647 5061:0.16607721 5062:0.13627478 5063:0.11098064 5064:0.13513373 5065:0.075691909 5066:-0.0041222619 5067:0.17957418 5068:-0.34790519 5069:0.13226575 5070:-0.020394975 5071:-0.16208921 5072:-0.018965086 5073:0.3383157 5074:0.1022336 5075:0.14980726 5076:0.0092076529 5077:-0.056944214 5078:-0.22001475 5079:0.063794017 5080:-0.11508157 5081:0.14552154 5082:-0.17338809 5083:-0.016934358 5084:-0.29969648 5085:0.023045195 5086:-0.14050484 5087:-0.014995391 5088:-0.081504658 5089:-0.13639516 5090:-0.079151422 5091:0.095149726 5092:0.19597693 5093:-0.11769424 5094:-0.072529621 5095:0.20094918 5096:-0.10868444 5097:0.084484011 5098:-0.016454281 5099:0.0033859371 5100:-0.01947771 5101:-0.039108112 5102:0.062873647 5103:-0.10076255 5104:-0.025159417 5105:-0.010846805 5106:-0.0036672044 5107:-0.28911239 5108:0.13058516 5109:0.2829724 5110:-0.11639021 5111:0.072105378 5112:-0.072672963 5113:-0.032206386 5114:-0.2790786 5115:0.19849856 5116:0.10499899 5117:0.13499653 5118:-0.14935909 5119:0.087466709 5120:-0.002256297 5121:0.050256114 5122:-0.075764425 5123:0.12451103 5124:-0.017459396 5125:-0.029820295 5126:0.0044078883 5127:0.056967475 5128:0.072542168 5129:0.023351451 5130:-0.15535124 5131:-0.049697898 5132:0.019698799 5133:-0.01244789 5134:0.057075545 5135:-0.16351075 5136:-0.035713159 5137:-0.037707407 5138:0.013657675 5139:0.014324659 5140:0.047504067 5141:0.072396688 5142:0.046985451 5143:0.21448517 5144:-0.29875866 5145:-0.17345895 5146:0.070732906 5147:-0.05508266 5148:-0.082665011 5149:-0.030503454 5150:0.15459022 5151:-0.016845508 5152:0.078942716 5153:-0.037763756 5154:0.1184368 5155:0.18642072 5156:0.061090264 5157:-0.057487641 5158:0.038121875 5159:-0.023531256 5160:0.031687424 5161:-0.16316268 5162:0.099442177 5163:0.20074469 5164:0.039995112 5165:0.012188728 5166:-0.11467332 5167:0.093358047 5168:0.19153263 5169:0.023345258 5170:0.014032031 5171:-0.15991606 5172:0.10477875 5173:-0.025169928 5174:0.016065657 5175:-0.042673394 5176:-0.078693107 5177:-0.18132845 5178:-0.040435672 5179:-0.0044044252 5180:-0.032054886 5181:0.079198092 5182:0.0013992479 5183:0.13832857 5184:-0.22375248 5185:-0.0072813826 5186:0.1351437 5187:-0.045518864 5188:0.15438853 5189:-0.10146087 5190:0.015559124 5191:0.17253694 5192:-0.1793364 5193:-0.16009247 5194:0.095106497 5195:0.19178052 5196:-0.022628199 5197:0.20462668 5198:0.0052931248 5199:0.18300547 5200:0.26490295 5201:0.078386948 5202:-0.27029082 5203:0.15319528 5204:0.18627542 5205:0.054996122 5206:0.13562284 5207:-0.2027345 5208:-0.093236215 5209:0.22547469 5210:-0.059999108 5211:0.11691172 5212:0.13876827 5213:-0.048364513 5214:-0.086129785 5215:0.0028939245 5216:0.075523384 5217:0.066484831 5218:-0.12114716 5219:-0.045050904 5220:-0.086111225 5221:-0.076508328 5222:-0.0439726 5223:0.057694301 5224:-0.07063812 5225:0.033067517 5226:0.020998519 5227:-0.11295564 5228:0.093788631 5229:-0.14530644 5230:-0.19136998 5231:-0.15000729 5232:0.0066200304 5233:0.13349183 5234:-0.015170862 5235:0.19874664 5236:-0.10722721 5237:0.16642718 5238:0.0095145833 5239:0.13513011 5240:5.5639612e-05 5241:0.092695519 5242:0.095596887 5243:-0.033461142 5244:-0.12432653 5245:-0.13788256 5246:0.077349223 5247:0.011000059 5248:-0.09439075 5249:-0.020026598 5250:-0.14156593 5251:-0.089983836 5252:0.10695782 5253:-0.11679438 5254:0.15402459 5255:-0.014748864 5256:0.17356953 5257:0.071400128 5258:-0.0040269759 5259:-0.11992637 5260:-0.078516982 5261:-0.11324812 5262:-0.035701919 5263:-0.18160221 5264:0.080576323 5265:-0.10198877 5266:0.066714242 5267:-0.021655848 5268:-0.18370254 5269:-0.041500356 5270:-0.18655987 5271:0.12090743 5272:0.036953982 5273:-0.0032053394 5274:-0.038296733 5275:-0.17293622 5276:-0.035913885 5277:-0.0056448644 5278:0.11507623 5279:0.040923074 5280:0.07932429 5281:0.0085502528 5282:-0.02940833 5283:-0.11082971 5284:0.077165879 5285:-0.0082883034 5286:0.17566997 5287:0.1867103 5288:-0.054663185 5289:-0.20578471 5290:-0.19749121 5291:-0.010074143 5292:0.23409143 5293:-0.12913647 5294:0.16061471 5295:-0.0013244866 5296:-0.011711648 5297:-0.037043419 5298:0.082553692 5299:-0.17574432 5300:-0.12534453 5301:-0.056268431 5302:-0.01127701 5303:0.070453025 5304:0.01491941 5305:-0.069715351 5306:0.015291536 5307:0.00014951041 5308:0.052272182 5309:0.098140083 5310:-0.088776395 5311:0.30630624 5312:-0.082330942 5313:0.016216423 5314:-0.0099932374 5315:0.088590592 5316:-0.039190389 5317:0.080100209 5318:0.019814141 5319:0.065672442 5320:0.12931032 5321:0.06964992 5322:0.012934658 5323:0.060839556 5324:-0.028484734 5325:-0.15773284 5326:0.067512222 5327:0.13391611 5328:0.16468291 5329:0.066727251 5330:0.074596986 5331:-0.072981618 5332:0.060796726 5333:-0.15852156 5334:-0.19970849 5335:0.027234554 5336:-0.034430441 5337:0.12945203 5338:-0.078107677 5339:-0.10371658 5340:0.012537064 5341:-0.12430494 5342:-0.085923262 5343:-0.18788126 5344:0.062226169 5345:0.054978512 5346:0.24032867 5347:0.041783903 5348:0.10911747 5349:0.34981486 5350:-0.040704697 5351:0.028760074 5352:-0.066838704 5353:0.048191834 5354:0.057516798 5355:-0.087250262 5356:0.010055476 5357:-0.22649667 5358:0.072855182 5359:-0.12627235 5360:0.10481683 5361:0.11056405 5362:-0.1425869 5363:-0.060782067 5364:-0.27023789 5365:-0.032875724 5366:-0.31834146 5367:0.099051245 5368:-0.080898881 5369:0.048266426 5370:0.0091419546 5371:0.041017525 5372:0.0068532131 5373:0.031564366 5374:-0.085826673 5375:-0.17917863 5376:-0.032629635 5377:0.35571331 5378:0.15547501 5379:-0.087194853 5380:-0.095913038 5381:0.10289239 5382:0.051357817 5383:-0.10856742 5384:-0.11588778 5385:0.073590085 5386:-0.35157362 5387:0.038887873 5388:-0.12701425 5389:-0.10526305 5390:-0.10263471 5391:-0.030915266 5392:0.0021667632 5393:0.0063540745 5394:-0.076674789 5395:0.07939776 5396:0.0451672 5397:-0.23265275 5398:-0.13456646 5399:-0.15834239 5400:-0.067799799 5401:-0.019257493 5402:-0.14260995 5403:0.15576133 5404:0.072872587 5405:-0.10599659 5406:0.12022522 5407:-0.063127808 5408:0.13631491 5409:0.016776618 5410:-0.078088209 5411:-0.10605857 5412:0.0014658193 5413:-0.011777192 5414:-0.13244863 5415:-0.006823855 5416:-0.036287125 5417:-0.072283842 5418:0.14341085 5419:-0.025253689 5420:-0.032176115 5421:-0.028416444 5422:0.060837321 5423:0.22079508 5424:0.026678462 5425:0.033657167 5426:0.059681982 5427:-0.022751864 5428:-0.11960734 5429:-0.085379258 5430:-0.14332904 5431:0.045264274 5432:-0.030941624 5433:-0.13329688 5434:0.14323413 5435:0.037558053 5436:0.063417807 5437:0.11503693 5438:0.1798462 5439:-0.022401385 5440:0.22234336 5441:0.0062497123 5442:-0.21112901 5443:0.065630026 5444:0.011924016 5445:0.0028947811 5446:-0.011668674 5447:-0.031713273 5448:-0.087790892 5449:0.096978679 5450:0.061434772 5451:0.059662547 5452:-0.28665498 5453:-0.074493259 5454:0.2060187 5455:0.27016634 5456:-0.0024507528 5457:0.016039507 5458:0.038233325 5459:-0.093696237 5460:0.045910016 5461:-0.094838224 5462:-0.026296901 5463:0.028634492 5464:0.11693846 5465:-0.14387739 5466:0.063448869 5467:0.090118401 5468:0.055717692 5469:-0.031246789 5470:0.092713654 5471:-0.080595545 5472:-0.13808194 5473:0.036561951 5474:0.011568324 5475:-0.037256163 5476:-0.014073384 5477:0.06554237 5478:0.025598964 5479:-0.1509504 5480:-0.034307536 5481:0.043705374 5482:0.16670601 5483:0.0096044904 5484:0.16377361 5485:0.073359326 5486:0.25892192 5487:0.048305374 5488:0.14494285 5489:-0.06568794 5490:-0.098423719 5491:-0.15474343 5492:-0.08693219 5493:0.059544366 5494:0.020121625 5495:0.096207872 5496:-0.19219631 5497:0.071672685 5498:-0.059404194 5499:-0.070416562 5500:0.023807913 5501:-0.10966776 5502:0.25096318 5503:0.090269476 5504:0.094489157 5505:-0.069885001 5506:0.066646181 5507:-0.17280084 5508:0.022976451 5509:0.020398566 5510:-0.067909308 5511:0.09022104 5512:-0.072371691 5513:-0.057342649 5514:0.055716027 5515:-0.058054615 5516:0.033943962 5517:0.18122257 5518:0.15773502 5519:0.10343902 5520:0.076660395 5521:0.12949868 5522:-0.027660444 5523:-0.010253768 5524:-0.003377395 5525:0.081170067 5526:-0.10090831 5527:0.23327954 5528:-0.069011167 5529:0.1284887 5530:-0.023451725 5531:0.11388104 5532:0.079996414 5533:0.049823966 5534:0.064584889 5535:0.21141683 5536:-0.24920572 5537:0.039781678 5538:-0.09628538 5539:-0.085104041 5540:-0.041360818 5541:-0.028782174 5542:0.13647912 5543:0.050349329 5544:-0.03550889 5545:0.12507166 5546:0.19042833 5547:-0.23217754 5548:-0.054792542 5549:0.14334464 5550:0.13134362 5551:0.12088761 5552:0.06105293 5553:-0.17898653 5554:0.099596791 5555:-0.11203671 5556:0.10037715 5557:-0.15635161 5558:-0.031640742 5559:-0.078456655 5560:0.2303625 5561:0.0034505941 5562:-0.063900359 5563:-0.157801 5564:-0.0307911 5565:-0.083198071 5566:-0.070464037 5567:0.10116913 5568:-0.076890349 5569:-0.044775445 5570:0.033805009 5571:-0.04948993 5572:-0.24205609 5573:0.097104281 5574:-0.016695514 5575:-0.041567691 5576:0.0022802788 5577:0.011310604 5578:-0.0020974381 5579:0.15769191 5580:0.16909377 5581:0.072206743 5582:0.16898143 5583:-0.073203273 5584:-0.090709291 5585:0.041372318 5586:-0.061221085 5587:0.065964445 5588:-0.050707262 5589:-0.12488972 5590:0.19625701 5591:0.26046714 5592:-0.0087103508 5593:0.15279502 5594:-0.027478751 5595:-0.029173454 5596:-0.20935638 5597:-0.096891396 5598:0.13660985 5599:-0.11195989 5600:-0.15258178 5601:0.010554691 5602:-0.086681485 5603:-0.045696575 5604:-0.094200842 5605:0.025821703 5606:-0.043379214 5607:0.054251455 5608:-0.14811477 5609:0.19956031 5610:0.10748331 5611:-0.025324732 5612:0.0045472137 5613:-0.070446387 5614:-0.003691528 5615:0.021694962 5616:0.01633621 5617:-0.039384168 5618:-0.037894905 5619:0.098649651 5620:-0.043120671 5621:0.02310764 5622:-0.31918925 5623:-0.058748722 5624:-0.01557195 5625:-0.042989738 5626:0.035608042 5627:0.12002356 5628:0.09390977 5629:-0.11363941 5630:-0.13728048 5631:0.096757896 5632:-0.11537965 5633:0.024835132 5634:0.15149611 5635:-0.10646531 5636:0.13266648 5637:0.084709935 5638:0.01012087 5639:0.21705714 5640:-0.14460807 5641:-0.10490864 5642:-0.17576097 5643:-0.014376248 5644:0.07345593 5645:0.050933246 5646:-0.026894974 5647:0.041615412 5648:-0.08587034 5649:0.19828689 5650:0.011268882 5651:-0.048961092 5652:0.13231182 5653:0.16883785 5654:0.13144983 5655:-0.040641997 5656:-0.20199145 5657:0.017149836 5658:0.068519905 5659:-0.0097931083 5660:-0.081871092 5661:-0.05805622 5662:0.0012638714 5663:0.078634933 5664:0.15422738 5665:0.12664746 5666:0.06280186 5667:-0.018787554 5668:-0.088349305 5669:0.16824697 5670:-0.056461617 5671:0.19537397 5672:-0.060071398 5673:-0.13747868 5674:-0.030270074 5675:0.099462196 5676:-0.011896788 5677:0.14523382 5678:-0.0061097438 5679:0.028777154 5680:-0.10612054 5681:-0.095093034 5682:0.022331953 5683:0.015945084 5684:0.11173219 5685:-0.1153937 5686:-0.30878714 5687:0.09077923 5688:0.036354996 5689:0.15604287 5690:-0.027887955 5691:-0.018950099 5692:-0.26371253 5693:0.022836931 5694:-0.12196568 5695:-0.069118567 5696:0.028987024 5697:0.059688326 5698:-0.012557463 5699:0.062091973 5700:0.0002807111 5701:-0.0037183156 5702:-0.2000073 5703:0.0013041858 5704:-0.3147434 5705:-0.31830904 5706:-0.14205919 5707:-0.010667569 5708:-0.13289173 5709:-0.14117153 5710:-0.084042013 5711:0.086589001 5712:0.17498666 5713:0.014059523 5714:-0.061710112 5715:-0.12219857 5716:0.087430485 5717:-0.035443258 5718:0.00014541135 5719:-0.2129284 5720:0.1674611 5721:-0.11169557 5722:0.10094056 5723:-0.19707072 5724:0.21331137 5725:-0.34741089 5726:0.18988879 5727:-0.051505577 5728:0.06021047 5729:0.014254862 5730:-0.033931326 5731:-0.13106166 5732:0.15552931 5733:0.20716296 5734:-0.096672967 5735:-0.01469203 5736:-0.062407486 5737:0.021668307 5738:-0.037146263 5739:-0.090923436 5740:0.01611107 5741:0.028596641 5742:-0.1129032 5743:0.09132617 5744:-0.072533421 5745:-0.10886031 5746:0.042335913 5747:0.014408482 5748:0.018394846 5749:-0.19666576 5750:0.0097866338 5751:0.10737122 5752:0.17673156 5753:0.16255185 5754:-0.12727781 5755:0.037700929 5756:-0.10149903 5757:0.061581492 5758:0.14993183 5759:-0.16174829 5760:0.021525582 5761:-0.022396863 5762:0.13056961 5763:-0.21538723 5764:0.040823776 5765:-0.023629645 5766:-0.048553504 5767:-0.059721708 5768:-0.043967042 5769:0.086513139 5770:0.13177982 5771:0.035833579 5772:0.091300301 5773:-0.0087940907 5774:-0.0364195 5775:-0.013327333 5776:0.12553565 5777:0.14534955 5778:-0.063591547 5779:0.12047341 5780:-0.30125543 5781:-0.1538412 5782:-0.057984591 5783:0.07828512 5784:0.049120575 5785:0.087631106 5786:0.062733404 5787:-0.035168719 5788:0.087039605 5789:-0.14555903 5790:0.040346425 5791:0.051820926 5792:0.1612307 5793:0.07732892 5794:0.051789645 5795:-0.13339055 5796:-0.032825712 5797:0.25069141 5798:-0.22850063 5799:0.18155104 5800:-0.013849841 5801:-0.040192015 5802:-0.025150953 5803:0.044242136 5804:0.095849045 5805:0.043297511 5806:0.069104932 5807:0.29776022 5808:0.18232167 5809:-0.18522865 5810:0.018750452 5811:0.12902281 5812:-0.070261128 5813:0.073477447 5814:0.044117849 5815:-0.14836675 5816:-0.046592366 5817:0.1650684 5818:-0.088634692 5819:-0.16069806 5820:0.0870957 5821:-0.096665718 5822:-0.027383916 5823:0.17349581 5824:-0.14337978 5825:0.015692662 5826:0.07306733 5827:-0.084426664 5828:0.055418946 5829:0.029129062 5830:0.038269911 5831:0.12432324 5832:-0.0069896742 5833:-0.033119533 5834:0.020324478 5835:-0.064822085 5836:0.048970424 5837:-0.18286157 5838:-0.02466449 5839:0.15252548 5840:0.13805577 5841:-0.20324031 5842:0.087592818 5843:0.14849168 5844:0.0039909482 5845:-0.022196094 5846:0.005320319 5847:0.087130047 5848:-0.078982465 5849:0.052401051 5850:0.0059952503 5851:-0.076292992 5852:-0.020089293 5853:0.075933419 5854:0.10472922 5855:-0.069298007 5856:-0.12937461 5857:0.13840751 5858:-0.078805909 5859:0.010526604 5860:-0.21712805 5861:0.0016261362 5862:-0.12861726 5863:0.040139038 5864:-0.12336152 5865:0.046801824 5866:-0.098649934 5867:0.0027677815 5868:0.078778319 5869:0.17145421 5870:-0.022351773 5871:-0.20105129 5872:-0.004565923 5873:-0.129943 5874:-0.10057698 5875:0.090100624 5876:-0.084964938 5877:-0.043534428 5878:-0.14784044 5879:0.023346752 5880:0.057179533 5881:0.075736351 5882:0.047218308 5883:-0.11512789 5884:0.052749515 5885:0.00057081878 5886:-0.0172434 5887:-0.091979027 5888:0.017897531 5889:0.075297259 5890:-0.063161165 